svm_type nu_svr
kernel_type rbf
gamma 0.0714286
nr_class 2
total_sv 1046
rho -0.853291
probA 0.019801
SV
-1 0:0.55554039 1:0.56048869 2:0.5559499 3:0.57970174 4:0.48036037 5:0.51776269 6:0.61645565 7:0 8:0 9:0 10:1 11:0 12:0 13:0 14:0 
0.9941324721623992 0:0.53141317 1:0.55554039 2:0.56048869 3:0.5559499 4:0.57970174 5:0.48036037 6:0.51776269 7:0 8:1 9:1 10:0 11:0 12:0 13:0 14:0 
-1 0:0.54072962 1:0.4790977 2:0.50929939 3:0.53141317 4:0.55554039 5:0.56048869 6:0.5559499 7:0 8:0 9:0 10:0 11:0 12:0 13:1 14:0 
1 0:0.56516398 1:0.54554141 2:0.52977511 3:0.54072962 4:0.4790977 5:0.50929939 6:0.53141317 7:0 8:0 9:0 10:1 11:0 12:0 13:0 14:0 
-1 0:0.58140805 1:0.56516398 2:0.54554141 3:0.52977511 4:0.54072962 5:0.4790977 6:0.50929939 7:0 8:1 9:1 10:0 11:0 12:0 13:0 14:0 
1 0:0.515954 1:0.58140805 2:0.56516398 3:0.54554141 4:0.52977511 5:0.54072962 6:0.4790977 7:0 8:0 9:0 10:0 11:0 12:0 13:0 14:0 
-1 0:0.54349384 1:0.515954 2:0.58140805 3:0.56516398 4:0.54554141 5:0.52977511 6:0.54072962 7:0 8:0 9:0 10:0 11:0 12:0 13:0 14:1 
-1 0:0.55209364 1:0.54349384 2:0.515954 3:0.58140805 4:0.56516398 5:0.54554141 6:0.52977511 7:0 8:0 9:0 10:0 11:0 12:0 13:1 14:0 
-1 0:0.52987749 1:0.55209364 2:0.54349384 3:0.515954 4:0.58140805 5:0.56516398 6:0.54554141 7:0 8:0 9:0 10:0 11:0 12:1 13:0 14:0 
-1 0:0.51056206 1:0.52987749 2:0.55209364 3:0.54349384 4:0.515954 5:0.58140805 6:0.56516398 7:1 8:0 9:0 10:0 11:1 12:0 13:0 14:0 
-1 0:0.38456813 1:0.51056206 2:0.52987749 3:0.55209364 4:0.54349384 5:0.515954 6:0.58140805 7:1 8:0 9:0 10:1 11:0 12:0 13:0 14:0 
-1 0:0.38842439 1:0.38456813 2:0.51056206 3:0.52987749 4:0.55209364 5:0.54349384 6:0.515954 7:1 8:1 9:1 10:0 11:0 12:0 13:0 14:0 
-1 0:0.44207078 1:0.40982152 2:0.38542129 3:0.38842439 4:0.38456813 5:0.51056206 6:0.52987749 7:1 8:0 9:0 10:0 11:0 12:0 13:1 14:0 
-1 0:0.498106 1:0.46681227 2:0.45483398 3:0.43367573 4:0.44207078 5:0.40982152 6:0.38542129 7:0 8:0 9:1 10:0 11:0 12:0 13:0 14:0 
-1 0:0.46353616 1:0.49083712 2:0.498106 3:0.46681227 4:0.45483398 5:0.43367573 6:0.44207078 7:0 8:0 9:0 10:0 11:0 12:0 13:0 14:1 
-1 0:0.50424871 1:0.46353616 2:0.49083712 3:0.498106 4:0.46681227 5:0.45483398 6:0.43367573 7:0 8:0 9:0 10:0 11:0 12:0 13:1 14:0 
-1 0:0.50073371 1:0.49738935 2:0.50424871 3:0.46353616 4:0.49083712 5:0.498106 6:0.46681227 7:0 8:0 9:0 10:0 11:1 12:0 13:0 14:0 
-1 0:0.51295089 1:0.49974405 2:0.50073371 3:0.49738935 4:0.50424871 5:0.46353616 6:0.49083712 7:0 8:1 9:1 10:0 11:0 12:0 13:0 14:0 
-1 0:0.50117735 1:0.44398184 2:0.46230761 3:0.51295089 4:0.49974405 5:0.50073371 6:0.49738935 7:0 8:0 9:0 10:0 11:0 12:0 13:1 14:0 
-1 0:0.50104085 1:0.50117735 2:0.44398184 3:0.46230761 4:0.51295089 5:0.49974405 6:0.50073371 7:0 8:0 9:0 10:0 11:0 12:1 13:0 14:0 
-1 0:0.45568713 1:0.47254547 2:0.50639866 3:0.50373682 4:0.49943692 5:0.50104085 6:0.50117735 7:0 8:0 9:0 10:0 11:0 12:0 13:0 14:1 
-1 0:0.48005324 1:0.52042453 2:0.51735317 3:0.51124458 4:0.50732007 5:0.50216701 6:0.45568713 7:0 8:1 9:0 10:0 11:0 12:0 13:0 14:0 
-1 0:0.44534689 1:0.48005324 2:0.52042453 3:0.51735317 4:0.51124458 5:0.50732007 6:0.50216701 7:0 8:0 9:0 10:0 11:0 12:0 13:0 14:1 
-1 0:0.50233764 1:0.44534689 2:0.48005324 3:0.52042453 4:0.51735317 5:0.51124458 6:0.50732007 7:0 8:0 9:0 10:0 11:0 12:0 13:1 14:0 
-1 0:0.50005119 1:0.50233764 2:0.44534689 3:0.48005324 4:0.52042453 5:0.51735317 6:0.51124458 7:0 8:0 9:0 10:0 11:0 12:1 13:0 14:0 
1 0:0 1:0.50005119 2:0.50233764 3:0.44534689 4:0.48005324 5:0.52042453 6:0.51735317 7:0 8:0 9:0 10:0 11:1 12:0 13:0 14:0 
-0.04196094760965906 0:0.47745965 1:0.49981231 2:0.50213289 3:0 4:0.50005119 5:0.50233764 6:0.44534689 7:0 8:1 9:0 10:0 11:0 12:0 13:0 14:0 
-0.06978116275309663 0:0.46466232 1:0.47745965 2:0.49981231 3:0.50213289 4:0 5:0.50005119 6:0.50233764 7:0 8:0 9:0 10:0 11:0 12:0 13:0 14:1 
-1 0:0.52192608 1:0.46466232 2:0.47745965 3:0.49981231 4:0.50213289 5:0 6:0.50005119 7:0 8:0 9:0 10:0 11:0 12:0 13:1 14:0 
-1 0:0.51069856 1:0.52192608 2:0.46466232 3:0.47745965 4:0.49981231 5:0.50213289 6:0 7:0 8:0 9:0 10:0 11:0 12:1 13:0 14:0 
-1 0:0.52765928 1:0.50728594 2:0.49998294 3:0.51069856 4:0.52192608 5:0.46466232 6:0.47745965 7:0 8:1 9:1 10:0 11:0 12:0 13:0 14:0 
1 0:0.4596799 1:0.45869024 2:0.52765928 3:0.50728594 4:0.49998294 5:0.51069856 6:0.52192608 7:0 8:0 9:0 10:0 11:0 12:0 13:0 14:1 
1 0:0.55622291 1:0.4596799 2:0.45869024 3:0.52765928 4:0.50728594 5:0.49998294 6:0.51069856 7:0 8:0 9:0 10:0 11:0 12:0 13:1 14:0 
1 0:0.5985394 1:0.59406887 2:0.58601508 3:0.55622291 4:0.4596799 5:0.45869024 6:0.52765928 7:0 8:0 9:0 10:1 11:0 12:0 13:0 14:0 
-1 0:0.54844214 1:0.61543187 2:0.5985394 3:0.59406887 4:0.58601508 5:0.55622291 6:0.4596799 7:0 8:1 9:0 10:0 11:0 12:0 13:0 14:0 
-1 0:0.50127973 1:0.54844214 2:0.61543187 3:0.5985394 4:0.59406887 5:0.58601508 6:0.55622291 7:0 8:0 9:0 10:0 11:0 12:0 13:0 14:1 
-1 0:0.5465652 1:0.50127973 2:0.54844214 3:0.61543187 4:0.5985394 5:0.59406887 6:0.58601508 7:0 8:0 9:0 10:0 11:0 12:0 13:1 14:0 
-1 0:0.5244173 1:0.5465652 2:0.50127973 3:0.54844214 4:0.61543187 5:0.5985394 6:0.59406887 7:0 8:0 9:0 10:0 11:0 12:1 13:0 14:0 
-1 0:0.52056103 1:0.5244173 2:0.5465652 3:0.50127973 4:0.54844214 5:0.61543187 6:0.5985394 7:0 8:0 9:0 10:0 11:1 12:0 13:0 14:0 
1 0:0.50244002 1:0.51844521 2:0.50926526 3:0.52056103 4:0.5244173 5:0.5465652 6:0.50127973 7:0 8:1 9:0 10:0 11:0 12:0 13:0 14:0 
1 0:0.505409 1:0.50244002 2:0.51844521 3:0.50926526 4:0.52056103 5:0.5244173 6:0.5465652 7:0 8:0 9:0 10:0 11:0 12:0 13:0 14:1 
-1 0:0.58178344 1:0.505409 2:0.50244002 3:0.51844521 4:0.50926526 5:0.52056103 6:0.5244173 7:0 8:0 9:0 10:0 11:0 12:0 13:1 14:0 
1 0:0.57004402 1:0.56502747 2:0.58178344 3:0.505409 4:0.50244002 5:0.51844521 6:0.50926526 7:0 8:0 9:0 10:0 11:1 12:0 13:0 14:0 
-1 0:0.58843804 1:0.57004402 2:0.56502747 3:0.58178344 4:0.505409 5:0.50244002 6:0.51844521 7:0 8:0 9:0 10:1 11:0 12:0 13:0 14:0 
1 0:0.56762106 1:0.58843804 2:0.57004402 3:0.56502747 4:0.58178344 5:0.505409 6:0.50244002 7:0 8:1 9:1 10:0 11:0 12:0 13:0 14:0 
-1 0:0.51124458 1:0.53851142 2:0.56762106 3:0.58843804 4:0.57004402 5:0.56502747 6:0.58178344 7:0 8:0 9:0 10:0 11:0 12:0 13:0 14:1 
-1 0:0.5715797 1:0.56680203 2:0.5522984 3:0.55209364 4:0.51124458 5:0.53851142 6:0.56762106 7:0 8:0 9:0 10:1 11:0 12:0 13:0 14:0 
1 0:0.51789919 1:0.55482374 2:0.5715797 3:0.56680203 4:0.5522984 5:0.55209364 6:0.51124458 7:0 8:1 9:0 10:0 11:0 12:0 13:0 14:0 
-1 0:0.51329215 1:0.51789919 2:0.55482374 3:0.5715797 4:0.56680203 5:0.5522984 6:0.55209364 7:0 8:0 9:0 10:0 11:0 12:0 13:0 14:1 
1 0:0.56356005 1:0.51329215 2:0.51789919 3:0.55482374 4:0.5715797 5:0.56680203 6:0.5522984 7:0 8:0 9:0 10:0 11:0 12:0 13:1 14:0 
1 0:0.60034809 1:0.58748251 2:0.59925605 3:0.56356005 4:0.51329215 5:0.51789919 6:0.55482374 7:0 8:0 9:0 10:1 11:0 12:0 13:0 14:0 
1 0:0.62208648 1:0.60034809 2:0.58748251 3:0.59925605 4:0.56356005 5:0.51329215 6:0.51789919 7:0 8:1 9:1 10:0 11:0 12:0 13:0 14:0 
1 0:0.60567177 1:0.62208648 2:0.60034809 3:0.58748251 4:0.59925605 5:0.56356005 6:0.51329215 7:0 8:1 9:0 10:0 11:0 12:0 13:0 14:0 
-1 0:0.64228919 1:0.58775552 2:0.60567177 3:0.62208648 4:0.60034809 5:0.58748251 6:0.59925605 7:0 8:0 9:0 10:0 11:0 12:0 13:1 14:0 
-1 0:0.61642153 1:0.64228919 2:0.58775552 3:0.60567177 4:0.62208648 5:0.60034809 6:0.58748251 7:0 8:0 9:0 10:0 11:0 12:1 13:0 14:0 
-1 0:0.59099751 1:0.61642153 2:0.64228919 3:0.58775552 4:0.60567177 5:0.62208648 6:0.60034809 7:0 8:0 9:0 10:0 11:1 12:0 13:0 14:0 
1 0:0.5822612 1:0.56386718 2:0.59099751 3:0.61642153 4:0.64228919 5:0.58775552 6:0.60567177 7:0 8:1 9:1 10:0 11:0 12:0 13:0 14:0 
1 0:0.57035116 1:0.5822612 2:0.56386718 3:0.59099751 4:0.61642153 5:0.64228919 6:0.58775552 7:0 8:1 9:0 10:0 11:0 12:0 13:0 14:0 
-1 0:0.65041122 1:0.60058697 2:0.57035116 3:0.5822612 4:0.56386718 5:0.59099751 6:0.61642153 7:0 8:0 9:0 10:0 11:0 12:0 13:1 14:0 
-1 0:0.62703477 1:0.65041122 2:0.60058697 3:0.57035116 4:0.5822612 5:0.56386718 6:0.59099751 7:0 8:0 9:0 10:0 11:0 12:1 13:0 14:0 
-1 0:0.60273692 1:0.60519401 2:0.62703477 3:0.65041122 4:0.60058697 5:0.57035116 6:0.5822612 7:1 8:0 9:0 10:1 11:0 12:0 13:0 14:0 
1 0:0.4931577 1:0.60273692 2:0.60519401 3:0.62703477 4:0.65041122 5:0.60058697 6:0.57035116 7:1 8:1 9:1 10:0 11:0 12:0 13:0 14:0 
1 0:0.50496536 1:0.4931577 2:0.60273692 3:0.60519401 4:0.62703477 5:0.65041122 6:0.60058697 7:1 8:1 9:0 10:0 11:0 12:0 13:0 14:0 
1 0:0.5287172 1:0.50496536 2:0.4931577 3:0.60273692 4:0.60519401 5:0.62703477 6:0.65041122 7:0 8:0 9:0 10:0 11:0 12:0 13:0 14:1 
1 0:0.61406682 1:0.5287172 2:0.50496536 3:0.4931577 4:0.60273692 5:0.60519401 6:0.62703477 7:0 8:0 9:0 10:0 11:0 12:0 13:1 14:0 
-1 0:0.65372146 1:0.65843088 2:0.6597618 3:0.6627649 4:0.61406682 5:0.5287172 6:0.50496536 7:0 8:1 9:1 10:0 11:0 12:0 13:0 14:0 
1 0:0.55284442 1:0.65372146 2:0.65843088 3:0.6597618 4:0.6627649 5:0.61406682 6:0.5287172 7:0 8:1 9:0 10:0 11:0 12:0 13:0 14:0 
1 0:0.67194485 1:0.67300276 2:0.58990547 3:0.55284442 4:0.65372146 5:0.65843088 6:0.6597618 7:0 8:0 9:0 10:0 11:0 12:1 13:0 14:0 
-1 0:0.69204518 1:0.67194485 2:0.67300276 3:0.58990547 4:0.55284442 5:0.65372146 6:0.65843088 7:0 8:0 9:0 10:0 11:1 12:0 13:0 14:0 
-1 0:0.66986315 1:0.69204518 2:0.67194485 3:0.67300276 4:0.58990547 5:0.55284442 6:0.65372146 7:0 8:0 9:0 10:1 11:0 12:0 13:0 14:0 
-1 0:0.55506262 1:0.59191892 2:0.64836365 3:0.66986315 4:0.69204518 5:0.67194485 6:0.67300276 7:0 8:0 9:0 10:0 11:0 12:0 13:0 14:1 
-1 0:0.59748149 1:0.55506262 2:0.59191892 3:0.64836365 4:0.66986315 5:0.69204518 6:0.67194485 7:0 8:0 9:0 10:0 11:0 12:0 13:1 14:0 
-1 0:0.56045456 1:0.59748149 2:0.55506262 3:0.59191892 4:0.64836365 5:0.66986315 6:0.69204518 7:0 8:0 9:0 10:0 11:0 12:1 13:0 14:0 
1 0:0.55345869 1:0.56045456 2:0.59748149 3:0.55506262 4:0.59191892 5:0.64836365 6:0.66986315 7:0 8:0 9:0 10:0 11:1 12:0 13:0 14:0 
1 0:0.63256322 1:0.55345869 2:0.56045456 3:0.59748149 4:0.55506262 5:0.59191892 6:0.64836365 7:0 8:0 9:0 10:1 11:0 12:0 13:0 14:0 
-1 0:0.63249497 1:0.62253012 2:0.61379381 3:0.62205235 4:0.55482374 5:0.58935945 6:0.6519469 7:0 8:0 9:0 10:1 11:0 12:0 13:0 14:0 
-1 0:0.58062314 1:0.63249497 2:0.62253012 3:0.61379381 4:0.62205235 5:0.55482374 6:0.58935945 7:0 8:1 9:1 10:0 11:0 12:0 13:0 14:0 
-1 0:0.59894891 1:0.58847217 2:0.51585162 3:0.52431492 4:0.58062314 5:0.63249497 6:0.62253012 7:0 8:0 9:0 10:0 11:0 12:1 13:0 14:0 
-1 0:0.50090434 1:0.53431389 2:0.58209057 3:0.58765314 4:0.58151043 5:0.59894891 6:0.58847217 7:0 8:0 9:0 10:0 11:0 12:0 13:0 14:1 
-1 0:0.51902536 1:0.50090434 2:0.53431389 3:0.58209057 4:0.58765314 5:0.58151043 6:0.59894891 7:0 8:0 9:0 10:0 11:0 12:0 13:1 14:0 
-1 0:0.50865099 1:0.48080401 2:0.46145446 3:0.51902536 4:0.50090434 5:0.53431389 6:0.58209057 7:0 8:0 9:0 10:1 11:0 12:0 13:0 14:0 
-1 0:0.47176057 1:0.50865099 2:0.48080401 3:0.46145446 4:0.51902536 5:0.50090434 6:0.53431389 7:1 8:1 9:1 10:0 11:0 12:0 13:0 14:0 
-0.1182208292988434 0:0.42278948 1:0.42398389 2:0.47176057 3:0.50865099 4:0.48080401 5:0.46145446 6:0.51902536 7:1 8:0 9:0 10:0 11:0 12:0 13:0 14:1 
-0.9442781828272256 0:0.45104597 1:0.44828175 2:0.44005733 3:0.43783913 4:0.4247688 5:0.42278948 6:0.42398389 7:0 8:0 9:1 10:0 11:0 12:0 13:0 14:0 
-0.9213531967783503 0:0.46128383 1:0.45104597 2:0.44828175 3:0.44005733 4:0.43783913 5:0.4247688 6:0.42278948 7:0 8:0 9:0 10:0 11:0 12:0 13:0 14:0 
-1 0:0.46452582 1:0.46128383 2:0.45104597 3:0.44828175 4:0.44005733 5:0.43783913 6:0.4247688 7:0 8:0 9:0 10:0 11:0 12:0 13:0 14:1 
-1 0:0.48994983 1:0.48189605 2:0.46452582 3:0.46128383 4:0.45104597 5:0.44828175 6:0.44005733 7:0 8:0 9:0 10:0 11:0 12:1 13:0 14:0 
1 0:0.49599017 1:0.49080299 2:0.48994983 3:0.48189605 4:0.46452582 5:0.46128383 6:0.45104597 7:0 8:0 9:0 10:1 11:0 12:0 13:0 14:0 
-1 0:0.49738935 1:0.52916084 2:0.49599017 3:0.49080299 4:0.48994983 5:0.48189605 6:0.46452582 7:0 8:1 9:0 10:0 11:0 12:0 13:0 14:0 
1 0:0.45800771 1:0.49738935 2:0.52916084 3:0.49599017 4:0.49080299 5:0.48994983 6:0.48189605 7:0 8:0 9:0 10:0 11:0 12:0 13:0 14:1 
1 0:0.56209262 1:0.45800771 2:0.49738935 3:0.52916084 4:0.49599017 5:0.49080299 6:0.48994983 7:0 8:0 9:0 10:0 11:0 12:0 13:1 14:0 
1 0:0.59666246 1:0.56209262 2:0.45800771 3:0.49738935 4:0.52916084 5:0.49599017 6:0.49080299 7:0 8:0 9:0 10:0 11:0 12:1 13:0 14:0 
1 0:0.6015425 1:0.60836774 2:0.59666246 3:0.56209262 4:0.45800771 5:0.49738935 6:0.52916084 7:0 8:0 9:0 10:1 11:0 12:0 13:0 14:0 
1 0:0.61877623 1:0.6015425 2:0.60836774 3:0.59666246 4:0.56209262 5:0.45800771 6:0.49738935 7:0 8:1 9:1 10:0 11:0 12:0 13:0 14:0 
1 0:0.62959424 1:0.61877623 2:0.6015425 3:0.60836774 4:0.59666246 5:0.56209262 6:0.45800771 7:0 8:0 9:0 10:0 11:0 12:0 13:1 14:0 
-1 0:0.66303791 1:0.67795106 2:0.62959424 3:0.61877623 4:0.6015425 5:0.60836774 6:0.59666246 7:0 8:0 9:0 10:0 11:1 12:0 13:0 14:0 
-1 0:0.61386206 1:0.66303791 2:0.67795106 3:0.62959424 4:0.61877623 5:0.6015425 6:0.60836774 7:0 8:0 9:0 10:1 11:0 12:0 13:0 14:0 
-0.3672743643738441 0:0.53281234 1:0.56345767 2:0.61386206 3:0.66303791 4:0.67795106 5:0.62959424 6:0.61877623 7:0 8:1 9:0 10:0 11:0 12:0 13:0 14:0 
-1 0:0.59396649 1:0.50281541 2:0.53281234 3:0.56345767 4:0.61386206 5:0.66303791 6:0.67795106 7:0 8:0 9:0 10:0 11:0 12:0 13:1 14:0 
-1 0:0.56014743 1:0.59396649 2:0.50281541 3:0.53281234 4:0.56345767 5:0.61386206 6:0.66303791 7:0 8:0 9:0 10:0 11:0 12:1 13:0 14:0 
1 0:0.55335631 1:0.56014743 2:0.59396649 3:0.50281541 4:0.53281234 5:0.56345767 6:0.61386206 7:0 8:0 9:0 10:0 11:1 12:0 13:0 14:0 
-1 0:0.5922943 1:0.55335631 2:0.56014743 3:0.59396649 4:0.50281541 5:0.53281234 6:0.56345767 7:0 8:0 9:0 10:1 11:0 12:0 13:0 14:0 
-1 0:0.55052384 1:0.5922943 2:0.55335631 3:0.56014743 4:0.59396649 5:0.50281541 6:0.53281234 7:0 8:1 9:1 10:0 11:0 12:0 13:0 14:0 
1 0:0.55018258 1:0.48793639 2:0.49677507 3:0.55052384 4:0.5922943 5:0.55335631 6:0.56014743 7:0 8:0 9:0 10:0 11:0 12:0 13:1 14:0 
1 0:0.57441218 1:0.55018258 2:0.48793639 3:0.49677507 4:0.55052384 5:0.5922943 6:0.55335631 7:0 8:0 9:0 10:0 11:0 12:1 13:0 14:0 
-1 0:0.60031396 1:0.57441218 2:0.55018258 3:0.48793639 4:0.49677507 5:0.55052384 6:0.5922943 7:0 8:0 9:0 10:0 11:1 12:0 13:0 14:0 
-1 0:0.580043 1:0.60031396 2:0.57441218 3:0.55018258 4:0.48793639 5:0.49677507 6:0.55052384 7:0 8:0 9:0 10:1 11:0 12:0 13:0 14:0 
-1 0:0.49100775 1:0.52199434 2:0.56352592 3:0.580043 4:0.60031396 5:0.57441218 6:0.55018258 7:0 8:0 9:0 10:0 11:0 12:0 13:0 14:1 
-1 0:0.56369655 1:0.54130976 2:0.49100775 3:0.52199434 4:0.56352592 5:0.580043 6:0.60031396 7:0 8:0 9:0 10:0 11:0 12:1 13:0 14:0 
-1 0:0.50100672 1:0.55383408 2:0.54260656 3:0.56369655 4:0.54130976 5:0.49100775 6:0.52199434 7:1 8:0 9:0 10:0 11:0 12:0 13:0 14:1 
1 0:0.43872641 1:0.50100672 2:0.55383408 3:0.54260656 4:0.56369655 5:0.54130976 6:0.49100775 7:0 8:0 9:0 10:0 11:0 12:0 13:1 14:0 
-1 0:0.56048869 1:0.55096748 2:0.53905743 3:0.54124151 4:0.43872641 5:0.50100672 6:0.55383408 7:0 8:1 9:1 10:0 11:0 12:0 13:0 14:0 
1 0:0.56328704 1:0.55966966 2:0.50247415 3:0.56048869 4:0.55096748 5:0.53905743 6:0.54124151 7:0 8:0 9:0 10:0 11:0 12:1 13:0 14:0 
-1 0:0.59669658 1:0.58847217 2:0.56328704 3:0.55966966 4:0.50247415 5:0.56048869 6:0.55096748 7:0 8:0 9:0 10:1 11:0 12:0 13:0 14:0 
-1 0:0.48216906 1:0.50960652 2:0.55956728 3:0.59669658 4:0.58847217 5:0.56328704 6:0.55966966 7:0 8:0 9:0 10:0 11:0 12:0 13:0 14:1 
-1 0:0.54806675 1:0.53472341 2:0.48216906 3:0.50960652 4:0.55956728 5:0.59669658 6:0.58847217 7:0 8:0 9:0 10:1 11:0 12:0 13:0 14:0 
-1 0:0.53622496 1:0.47718664 2:0.49674095 3:0.52997987 4:0.54806675 5:0.53472341 6:0.48216906 7:0 8:0 9:0 10:0 11:0 12:0 13:1 14:0 
-1 0:0.52021977 1:0.51902536 2:0.53622496 3:0.47718664 4:0.49674095 5:0.52997987 6:0.54806675 7:0 8:0 9:0 10:0 11:1 12:0 13:0 14:0 
-1 0:0.51725079 1:0.52021977 2:0.51902536 3:0.53622496 4:0.47718664 5:0.49674095 6:0.52997987 7:0 8:0 9:0 10:1 11:0 12:0 13:0 14:0 
-1 0:0.46913285 1:0.51725079 2:0.52021977 3:0.51902536 4:0.53622496 5:0.47718664 6:0.49674095 7:1 8:1 9:1 10:0 11:0 12:0 13:0 14:0 
1 0:0.39514725 1:0.46913285 2:0.51725079 3:0.52021977 4:0.51902536 5:0.53622496 6:0.47718664 7:1 8:1 9:0 10:0 11:0 12:0 13:0 14:0 
1 0:0.45128485 1:0.42582671 2:0.39514725 3:0.46913285 4:0.51725079 5:0.52021977 6:0.51902536 7:0 8:0 9:0 10:0 11:0 12:0 13:1 14:0 
1 0:0.49240692 1:0.45128485 2:0.42582671 3:0.39514725 4:0.46913285 5:0.51725079 6:0.52021977 7:0 8:0 9:0 10:0 11:0 12:1 13:0 14:0 
-1 0:0.55096748 1:0.52554346 2:0.49240692 3:0.45128485 4:0.42582671 5:0.39514725 6:0.46913285 7:0 8:0 9:0 10:1 11:0 12:0 13:0 14:0 
1 0:0.49131488 1:0.52776166 2:0.55096748 3:0.52554346 4:0.49240692 5:0.45128485 6:0.42582671 7:0 8:1 9:0 10:0 11:0 12:0 13:0 14:0 
-1 0:0.52656725 1:0.53114016 2:0.49131488 3:0.52776166 4:0.55096748 5:0.52554346 6:0.49240692 7:0 8:0 9:0 10:0 11:1 12:0 13:0 14:0 
1 0:0.52458793 1:0.46032829 2:0.4846944 3:0.52148244 4:0.51967375 5:0.52656725 6:0.53114016 7:0 8:0 9:0 10:0 11:0 12:0 13:1 14:0 
-0.1243373119073037 0:0.54823738 1:0.55345869 2:0.52458793 3:0.46032829 4:0.4846944 5:0.52148244 6:0.51967375 7:0 8:0 9:0 10:1 11:0 12:0 13:0 14:0 
-1 0:0.50581852 1:0.54202641 2:0.54823738 3:0.55345869 4:0.52458793 5:0.46032829 6:0.4846944 7:0 8:1 9:0 10:0 11:0 12:0 13:0 14:0 
-1 0:0.56048869 1:0.55335631 2:0.5487834 3:0.53499642 4:0.46404805 5:0.50581852 6:0.54202641 7:0 8:0 9:0 10:1 11:0 12:0 13:0 14:0 
-1 0:0.54506365 1:0.56048869 2:0.55335631 3:0.5487834 4:0.53499642 5:0.46404805 6:0.50581852 7:0 8:1 9:1 10:0 11:0 12:0 13:0 14:0 
1 0:0.49298707 1:0.54506365 2:0.56048869 3:0.55335631 4:0.5487834 5:0.53499642 6:0.46404805 7:0 8:1 9:0 10:0 11:0 12:0 13:0 14:0 
1 0:0.54356209 1:0.53840904 2:0.53697574 3:0.52987749 4:0.52772754 5:0.49298707 6:0.54506365 7:0 8:1 9:1 10:0 11:0 12:0 13:0 14:0 
-1 0:0.56437907 1:0.55714432 2:0.54356209 3:0.53840904 4:0.53697574 5:0.52987749 6:0.52772754 7:0 8:0 9:0 10:0 11:0 12:1 13:0 14:0 
-1 0:0.54605331 1:0.55441422 2:0.54844214 3:0.53973996 4:0.56437907 5:0.55714432 6:0.54356209 7:0 8:0 9:0 10:0 11:0 12:0 13:0 14:0 
1 0:0.52916084 1:0.54605331 2:0.55441422 3:0.54844214 4:0.53973996 5:0.56437907 6:0.55714432 7:1 8:0 9:0 10:0 11:0 12:1 13:0 14:0 
1 0:0.6006211 1:0.52916084 2:0.54605331 3:0.55441422 4:0.54844214 5:0.53973996 6:0.56437907 7:0 8:0 9:0 10:1 11:0 12:0 13:0 14:0 
1 0:0.63737501 1:0.6006211 2:0.52916084 3:0.54605331 4:0.55441422 5:0.54844214 6:0.53973996 7:0 8:1 9:1 10:0 11:0 12:0 13:0 14:0 
-1 0:0.63273385 1:0.63737501 2:0.6006211 3:0.52916084 4:0.54605331 5:0.55441422 6:0.54844214 7:0 8:0 9:0 10:0 11:0 12:0 13:1 14:0 
1 0:0.60215678 1:0.63273385 2:0.63737501 3:0.6006211 4:0.52916084 5:0.54605331 6:0.55441422 7:0 8:0 9:0 10:0 11:0 12:1 13:0 14:0 
-1 0:0.64948981 1:0.60215678 2:0.63273385 3:0.63737501 4:0.6006211 5:0.52916084 6:0.54605331 7:0 8:0 9:0 10:0 11:1 12:0 13:0 14:0 
-1 0:0.59441013 1:0.64948981 2:0.60215678 3:0.63273385 4:0.63737501 5:0.6006211 6:0.52916084 7:0 8:0 9:0 10:1 11:0 12:0 13:0 14:0 
-1 0:0.58188581 1:0.59441013 2:0.64948981 3:0.60215678 4:0.63273385 5:0.63737501 6:0.6006211 7:0 8:1 9:1 10:0 11:0 12:0 13:0 14:0 
1 0:0.51005017 1:0.52731802 2:0.58188581 3:0.59441013 4:0.64948981 5:0.60215678 6:0.63273385 7:0 8:0 9:0 10:0 11:0 12:0 13:0 14:1 
1 0:0.60434085 1:0.60065522 2:0.51005017 3:0.52731802 4:0.58188581 5:0.59441013 6:0.64948981 7:0 8:0 9:0 10:0 11:0 12:1 13:0 14:0 
1 0:0.68433266 1:0.60434085 2:0.60065522 3:0.51005017 4:0.52731802 5:0.58188581 6:0.59441013 7:0 8:0 9:0 10:0 11:1 12:0 13:0 14:0 
1 0:0.7345323 1:0.68433266 2:0.60434085 3:0.60065522 4:0.51005017 5:0.52731802 6:0.58188581 7:0 8:0 9:0 10:1 11:0 12:0 13:0 14:0 
-1 0:0.77101321 1:0.7345323 2:0.68433266 3:0.60434085 4:0.60065522 5:0.51005017 6:0.52731802 7:0 8:0 9:0 10:0 11:0 12:0 13:0 14:1 
-1 0:0.70603692 1:0.77101321 2:0.7345323 3:0.68433266 4:0.60434085 5:0.60065522 6:0.51005017 7:0 8:0 9:0 10:0 11:0 12:0 13:1 14:0 
1 0:0.68184145 1:0.70603692 2:0.77101321 3:0.7345323 4:0.68433266 5:0.60434085 6:0.60065522 7:0 8:0 9:0 10:0 11:0 12:1 13:0 14:0 
1 0:0.71518275 1:0.68184145 2:0.70603692 3:0.77101321 4:0.7345323 5:0.68433266 6:0.60434085 7:0 8:1 9:1 10:0 11:0 12:0 13:0 14:0 
-1 0:0.67313927 1:0.71518275 2:0.68184145 3:0.70603692 4:0.77101321 5:0.7345323 6:0.68433266 7:0 8:0 9:0 10:0 11:0 12:0 13:1 14:0 
-1 0:0.66788383 1:0.67313927 2:0.71518275 3:0.68184145 4:0.70603692 5:0.77101321 6:0.7345323 7:0 8:0 9:0 10:0 11:0 12:1 13:0 14:0 
1 0:0.61249701 1:0.66030782 2:0.65201515 3:0.63590759 4:0.66788383 5:0.67313927 6:0.71518275 7:0 8:1 9:0 10:0 11:0 12:0 13:0 14:0 
1 0:0.76671331 1:0.61249701 2:0.66030782 3:0.65201515 4:0.63590759 5:0.66788383 6:0.67313927 7:0 8:0 9:0 10:0 11:0 12:1 13:0 14:0 
1 0:0.79527693 1:0.76671331 2:0.61249701 3:0.66030782 4:0.65201515 5:0.63590759 6:0.66788383 7:0 8:0 9:0 10:0 11:1 12:0 13:0 14:0 
-1 0:0.77186636 1:0.78910009 2:0.79527693 3:0.76671331 4:0.61249701 5:0.66030782 6:0.65201515 7:0 8:0 9:0 10:0 11:0 12:0 13:0 14:1 
-1 0:0.71450022 1:0.77186636 2:0.78910009 3:0.79527693 4:0.76671331 5:0.61249701 6:0.66030782 7:0 8:0 9:0 10:0 11:0 12:0 13:1 14:0 
1 0:0.66791796 1:0.71450022 2:0.77186636 3:0.78910009 4:0.79527693 5:0.76671331 6:0.61249701 7:0 8:0 9:0 10:0 11:0 12:1 13:0 14:0 
1 0:0.76432447 1:0.66791796 2:0.71450022 3:0.77186636 4:0.78910009 5:0.79527693 6:0.76671331 7:0 8:0 9:0 10:1 11:0 12:0 13:0 14:0 
1 0:0.79435553 1:0.76432447 2:0.66791796 3:0.71450022 4:0.77186636 5:0.78910009 6:0.79527693 7:0 8:1 9:1 10:0 11:0 12:0 13:0 14:0 
1 0:0.74282497 1:0.79435553 2:0.76432447 3:0.66791796 4:0.71450022 5:0.77186636 6:0.78910009 7:0 8:1 9:0 10:0 11:0 12:0 13:0 14:0 
1 0:0.76128724 1:0.74282497 2:0.79435553 3:0.76432447 4:0.66791796 5:0.71450022 6:0.77186636 7:0 8:0 9:0 10:0 11:0 12:0 13:0 14:1 
1 0:0.87489336 1:0.76128724 2:0.74282497 3:0.79435553 4:0.76432447 5:0.66791796 6:0.71450022 7:0 8:0 9:0 10:0 11:0 12:0 13:1 14:0 
-1 0:0.8732553 1:0.87383544 2:0.87489336 3:0.76128724 4:0.74282497 5:0.79435553 6:0.76432447 7:0 8:0 9:0 10:0 11:1 12:0 13:0 14:0 
-1 0:0.82875474 1:0.8732553 2:0.87383544 3:0.87489336 4:0.76128724 5:0.74282497 6:0.79435553 7:0 8:0 9:0 10:1 11:0 12:0 13:0 14:0 
-1 0:0.78749616 1:0.82875474 2:0.8732553 3:0.87383544 4:0.87489336 5:0.76128724 6:0.74282497 7:0 8:1 9:0 10:0 11:0 12:0 13:0 14:0 
1 0:0.65484763 1:0.78749616 2:0.82875474 3:0.8732553 4:0.87383544 5:0.87489336 6:0.76128724 7:0 8:0 9:0 10:0 11:0 12:0 13:0 14:1 
1 0:0.80496877 1:0.79544757 2:0.65484763 3:0.78749616 4:0.82875474 5:0.8732553 6:0.87383544 7:0 8:0 9:0 10:0 11:0 12:1 13:0 14:0 
1 0:0.84097191 1:0.80496877 2:0.79544757 3:0.65484763 4:0.78749616 5:0.82875474 6:0.8732553 7:0 8:0 9:0 10:0 11:1 12:0 13:0 14:0 
1 0:0.87902263 1:0.88642801 2:0.84097191 3:0.80496877 4:0.79544757 5:0.65484763 6:0.78749616 7:0 8:1 9:1 10:0 11:0 12:0 13:0 14:0 
-1 0:0.78940723 1:0.82865236 2:0.87902263 3:0.88642801 4:0.84097191 5:0.80496877 6:0.79544757 7:0 8:0 9:0 10:0 11:0 12:0 13:0 14:1 
-1 0:0.86690783 1:0.78940723 2:0.82865236 3:0.87902263 4:0.88642801 5:0.84097191 6:0.80496877 7:0 8:0 9:0 10:0 11:0 12:0 13:1 14:0 
-0.8971402536808311 0:0.83827594 1:0.86690783 2:0.78940723 3:0.82865236 4:0.87902263 5:0.88642801 6:0.84097191 7:0 8:0 9:0 10:0 11:0 12:1 13:0 14:0 
-1 0:0.83015391 1:0.83827594 2:0.86690783 3:0.78940723 4:0.82865236 5:0.87902263 6:0.88642801 7:0 8:0 9:0 10:0 11:1 12:0 13:0 14:0 
1 0:0.70699246 1:0.73920759 2:0.80950756 3:0.81063372 4:0.83015391 5:0.83827594 6:0.86690783 7:0 8:0 9:0 10:0 11:0 12:0 13:0 14:1 
-1 0:0.82711668 1:0.84417978 2:0.83650138 3:0.83530697 4:0.70699246 5:0.73920759 6:0.80950756 7:0 8:0 9:0 10:1 11:0 12:0 13:0 14:0 
-1 0:0.76220865 1:0.82711668 2:0.84417978 3:0.83650138 4:0.83530697 5:0.70699246 6:0.73920759 7:0 8:1 9:1 10:0 11:0 12:0 13:0 14:0 
-1 0:0.62031191 1:0.76220865 2:0.82711668 3:0.84417978 4:0.83650138 5:0.83530697 6:0.70699246 7:0 8:1 9:0 10:0 11:0 12:0 13:0 14:0 
1 0:0.69921168 1:0.59161178 2:0.62031191 3:0.76220865 4:0.82711668 5:0.84417978 6:0.83650138 7:0 8:0 9:0 10:0 11:0 12:0 13:1 14:0 
0.7642744574217538 0:0.73565847 1:0.69921168 2:0.59161178 3:0.62031191 4:0.76220865 5:0.82711668 6:0.84417978 7:0 8:0 9:0 10:0 11:0 12:1 13:0 14:0 
1 0:0.7345323 1:0.74732962 2:0.73565847 3:0.69921168 4:0.59161178 5:0.62031191 6:0.76220865 7:0 8:0 9:0 10:1 11:0 12:0 13:0 14:0 
1 0:0.75739685 1:0.7345323 2:0.74732962 3:0.73565847 4:0.69921168 5:0.59161178 6:0.62031191 7:0 8:1 9:1 10:0 11:0 12:0 13:0 14:0 
1 0:0.6434836 1:0.69484353 2:0.75739685 3:0.7345323 4:0.74732962 5:0.73565847 6:0.69921168 7:0 8:0 9:0 10:0 11:0 12:0 13:0 14:1 
1 0:0.75848889 1:0.75142477 2:0.6434836 3:0.69484353 4:0.75739685 5:0.7345323 6:0.74732962 7:0 8:0 9:0 10:0 11:0 12:1 13:0 14:0 
-1 0:0.79326349 1:0.7957547 2:0.75848889 3:0.75142477 4:0.6434836 5:0.69484353 6:0.75739685 7:0 8:0 9:0 10:1 11:0 12:0 13:0 14:0 
-1 0:0.67245675 1:0.74613521 2:0.79326349 3:0.7957547 4:0.75848889 5:0.75142477 6:0.6434836 7:0 8:1 9:0 10:0 11:0 12:0 13:0 14:0 
-1 0:0.57226223 1:0.67245675 2:0.74613521 3:0.79326349 4:0.7957547 5:0.75848889 6:0.75142477 7:0 8:0 9:0 10:0 11:0 12:0 13:0 14:1 
1 0:0.64007098 1:0.57226223 2:0.67245675 3:0.74613521 4:0.79326349 5:0.7957547 6:0.75848889 7:0 8:0 9:0 10:0 11:0 12:0 13:1 14:0 
-1 0:0.69764188 1:0.64007098 2:0.57226223 3:0.67245675 4:0.74613521 5:0.79326349 6:0.7957547 7:0 8:0 9:0 10:0 11:0 12:1 13:0 14:0 
1 0:0.6163874 1:0.6747432 2:0.67115995 3:0.67883834 4:0.69764188 5:0.64007098 6:0.57226223 7:0 8:0 9:0 10:0 11:0 12:0 13:0 14:0 
-0.7809736862894109 0:0.7103027 1:0.6163874 2:0.6747432 3:0.67115995 4:0.67883834 5:0.69764188 6:0.64007098 7:0 8:0 9:0 10:0 11:0 12:0 13:0 14:1 
1 0:0.75231205 1:0.7103027 2:0.6163874 3:0.6747432 4:0.67115995 5:0.67883834 6:0.69764188 7:0 8:0 9:0 10:0 11:0 12:0 13:1 14:0 
-1 0:0.76558714 1:0.75231205 2:0.7103027 3:0.6163874 4:0.6747432 5:0.67115995 6:0.67883834 7:1 8:0 9:0 10:0 11:0 12:1 13:0 14:0 
-1 0:0.58546906 1:0.76558714 2:0.75231205 3:0.7103027 4:0.6163874 5:0.6747432 6:0.67115995 7:1 8:0 9:0 10:0 11:1 12:0 13:0 14:0 
1 0:0.5073542 1:0.58546906 2:0.76558714 3:0.75231205 4:0.7103027 5:0.6163874 6:0.6747432 7:1 8:0 9:0 10:1 11:0 12:0 13:0 14:0 
0.3499767913343794 0:0.53086715 1:0.5073542 2:0.58546906 3:0.76558714 4:0.75231205 5:0.7103027 6:0.6163874 7:0 8:0 9:1 10:0 11:0 12:0 13:0 14:0 
-1 0:0.55690544 1:0.53086715 2:0.5073542 3:0.58546906 4:0.76558714 5:0.75231205 6:0.7103027 7:0 8:0 9:0 10:0 11:0 12:0 13:0 14:0 
-1 0:0.54219704 1:0.55690544 2:0.53086715 3:0.5073542 4:0.58546906 5:0.76558714 6:0.75231205 7:0 8:0 9:0 10:0 11:0 12:0 13:0 14:1 
-1 0:0.56001092 1:0.55062622 2:0.54219704 3:0.55690544 4:0.53086715 5:0.5073542 6:0.58546906 7:0 8:0 9:0 10:0 11:0 12:1 13:0 14:0 
-1 0:0.53956933 1:0.56001092 2:0.55062622 3:0.54219704 4:0.55690544 5:0.53086715 6:0.5073542 7:0 8:0 9:0 10:0 11:1 12:0 13:0 14:0 
-1 0:0.52479268 1:0.53956933 2:0.56001092 3:0.55062622 4:0.54219704 5:0.55690544 6:0.53086715 7:1 8:0 9:0 10:1 11:0 12:0 13:0 14:0 
1 0:0.42514418 1:0.41801181 2:0.40780807 3:0.52479268 4:0.53956933 5:0.56001092 6:0.55062622 7:1 8:0 9:0 10:0 11:0 12:0 13:0 14:1 
1 0:0.46998601 1:0.45725694 2:0.42514418 3:0.41801181 4:0.40780807 5:0.52479268 6:0.53956933 7:1 8:0 9:0 10:0 11:0 12:1 13:0 14:0 
1 0:0.49070061 1:0.46998601 2:0.45725694 3:0.42514418 4:0.41801181 5:0.40780807 6:0.52479268 7:1 8:0 9:0 10:0 11:1 12:0 13:0 14:0 
1 0:0.50643279 1:0.49070061 2:0.46998601 3:0.45725694 4:0.42514418 5:0.41801181 6:0.40780807 7:0 8:0 9:0 10:1 11:0 12:0 13:0 14:0 
-1 0:0.54403986 1:0.54697471 2:0.50643279 3:0.49070061 4:0.46998601 5:0.45725694 6:0.42514418 7:0 8:1 9:0 10:0 11:0 12:0 13:0 14:0 
-1 0:0.54711122 1:0.54898816 2:0.55455073 3:0.54963656 4:0.49643381 5:0.54403986 6:0.54697471 7:0 8:0 9:0 10:1 11:0 12:0 13:0 14:0 
-1 0:0.48138416 1:0.50209876 2:0.53264171 3:0.54711122 4:0.54898816 5:0.55455073 6:0.54963656 7:0 8:0 9:0 10:0 11:0 12:0 13:0 14:1 
-1 0:0.54069549 1:0.54496127 2:0.53410914 3:0.48138416 4:0.50209876 5:0.53264171 6:0.54711122 7:0 8:0 9:0 10:0 11:1 12:0 13:0 14:0 
1 0:0.53871617 1:0.53595195 2:0.54069549 3:0.54496127 4:0.53410914 5:0.48138416 6:0.50209876 7:0 8:1 9:1 10:0 11:0 12:0 13:0 14:0 
-1 0:0.48602532 1:0.51551036 2:0.53871617 3:0.53595195 4:0.54069549 5:0.54496127 6:0.53410914 7:0 8:0 9:0 10:0 11:0 12:0 13:0 14:1 
-1 0:0.53373375 1:0.48602532 2:0.51551036 3:0.53871617 4:0.53595195 5:0.54069549 6:0.54496127 7:0 8:0 9:0 10:0 11:0 12:0 13:1 14:0 
-1 0:0.54014947 1:0.53919394 2:0.47568508 3:0.49899328 4:0.53799952 5:0.53844316 6:0.53479166 7:0 8:0 9:0 10:0 11:1 12:0 13:0 14:0 
-0.06541745036174221 0:0.53960345 1:0.54274306 2:0.48472853 3:0.50455585 4:0.53141317 5:0.53322185 6:0.54014947 7:0 8:0 9:0 10:0 11:0 12:1 13:0 14:0 
-1 0:0.53970583 1:0.53506467 2:0.53960345 3:0.54274306 4:0.48472853 5:0.50455585 6:0.53141317 7:0 8:0 9:0 10:1 11:0 12:0 13:0 14:0 
-0.9955247878133148 0:0.54861277 1:0.55301505 2:0.55949903 3:0.55376583 4:0.48728799 5:0.50267891 6:0.52776166 7:0 8:0 9:0 10:1 11:0 12:0 13:0 14:0 
-1 0:0.49052998 1:0.51441832 2:0.54281132 3:0.54861277 4:0.55301505 5:0.55949903 6:0.55376583 7:0 8:0 9:0 10:0 11:0 12:0 13:0 14:1 
-1 0:0.48735624 1:0.51175648 2:0.54533665 3:0.54618981 4:0.54963656 5:0.54823738 6:0.54393748 7:0 8:0 9:0 10:0 11:0 12:0 13:0 14:1 
1 0:0.5580316 1:0.47882469 2:0.51213186 3:0.53759001 4:0.53847729 5:0.54062724 6:0.54421049 7:0 8:0 9:0 10:0 11:0 12:0 13:1 14:0 
-1 0:0.57666451 1:0.57792717 2:0.57721052 3:0.5580316 4:0.47882469 5:0.51213186 6:0.53759001 7:0 8:0 9:0 10:1 11:0 12:0 13:0 14:0 
1 0:0.5573832 1:0.57666451 2:0.57792717 3:0.57721052 4:0.5580316 5:0.47882469 6:0.51213186 7:0 8:1 9:1 10:0 11:0 12:0 13:0 14:0 
1 0:0.58000887 1:0.52370064 2:0.53919394 3:0.5573832 4:0.57666451 5:0.57792717 6:0.57721052 7:0 8:0 9:0 10:0 11:0 12:0 13:1 14:0 
1 0:0.60632017 1:0.58000887 2:0.52370064 3:0.53919394 4:0.5573832 5:0.57666451 6:0.57792717 7:0 8:0 9:0 10:0 11:0 12:1 13:0 14:0 
1 0:0.66573388 1:0.60632017 2:0.58000887 3:0.52370064 4:0.53919394 5:0.5573832 6:0.57666451 7:0 8:0 9:0 10:0 11:1 12:0 13:0 14:0 
-1 0:0.58618571 1:0.66498311 2:0.67634713 3:0.66573388 4:0.60632017 5:0.58000887 6:0.52370064 7:0 8:1 9:0 10:0 11:0 12:0 13:0 14:0 
-1 0:0.60208852 1:0.53346074 2:0.58618571 3:0.66498311 4:0.67634713 5:0.66573388 6:0.60632017 7:0 8:0 9:0 10:0 11:0 12:0 13:1 14:0 
-1 0:0.59055387 1:0.58976897 2:0.60208852 3:0.53346074 4:0.58618571 5:0.66498311 6:0.67634713 7:0 8:0 9:0 10:0 11:1 12:0 13:0 14:0 
1 0:0.57762004 1:0.59055387 2:0.58976897 3:0.60208852 4:0.53346074 5:0.58618571 6:0.66498311 7:0 8:0 9:0 10:1 11:0 12:0 13:0 14:0 
1 0:0.64863666 1:0.57762004 2:0.59055387 3:0.58976897 4:0.60208852 5:0.53346074 6:0.58618571 7:0 8:1 9:1 10:0 11:0 12:0 13:0 14:0 
1 0:0.61792308 1:0.64863666 2:0.57762004 3:0.59055387 4:0.58976897 5:0.60208852 6:0.53346074 7:0 8:1 9:0 10:0 11:0 12:0 13:0 14:0 
-1 0:0.59741323 1:0.61792308 2:0.64863666 3:0.57762004 4:0.59055387 5:0.58976897 6:0.60208852 7:0 8:0 9:0 10:0 11:0 12:0 13:0 14:1 
-1 0:0.64594069 1:0.59741323 2:0.61792308 3:0.64863666 4:0.57762004 5:0.59055387 6:0.58976897 7:0 8:0 9:0 10:0 11:0 12:0 13:1 14:0 
1 0:0.62075555 1:0.62826332 2:0.64594069 3:0.59741323 4:0.61792308 5:0.64863666 6:0.57762004 7:0 8:0 9:0 10:0 11:1 12:0 13:0 14:0 
1 0:0.64819302 1:0.62075555 2:0.62826332 3:0.64594069 4:0.59741323 5:0.61792308 6:0.64863666 7:0 8:0 9:0 10:1 11:0 12:0 13:0 14:0 
1 0:0.56458383 1:0.66129748 2:0.64819302 3:0.62075555 4:0.62826332 5:0.64594069 6:0.59741323 7:1 8:1 9:0 10:0 11:0 12:0 13:0 14:0 
1 0:0.60352182 1:0.56458383 2:0.66129748 3:0.64819302 4:0.62075555 5:0.62826332 6:0.64594069 7:1 8:0 9:0 10:0 11:0 12:0 13:0 14:1 
1 0:0.65471112 1:0.60352182 2:0.56458383 3:0.66129748 4:0.64819302 5:0.62075555 6:0.62826332 7:0 8:0 9:0 10:0 11:0 12:0 13:1 14:0 
1 0:0.69569669 1:0.65471112 2:0.60352182 3:0.56458383 4:0.66129748 5:0.64819302 6:0.62075555 7:0 8:0 9:0 10:0 11:0 12:1 13:0 14:0 
1 0:0.71927789 1:0.69569669 2:0.65471112 3:0.60352182 4:0.56458383 5:0.66129748 6:0.64819302 7:0 8:0 9:0 10:0 11:1 12:0 13:0 14:0 
1 0:0.6477835 1:0.71897075 2:0.72251988 3:0.71927789 4:0.69569669 5:0.65471112 6:0.60352182 7:0 8:1 9:0 10:0 11:0 12:0 13:0 14:0 
-1 0:0.66027369 1:0.6477835 2:0.71897075 3:0.72251988 4:0.71927789 5:0.69569669 6:0.65471112 7:0 8:0 9:0 10:0 11:0 12:0 13:0 14:1 
1 0:0.71566051 1:0.66027369 2:0.6477835 3:0.71897075 4:0.72251988 5:0.71927789 6:0.69569669 7:0 8:0 9:0 10:0 11:0 12:0 13:1 14:0 
-1 0:0.71873187 1:0.73149507 2:0.71566051 3:0.66027369 4:0.6477835 5:0.71897075 6:0.72251988 7:0 8:0 9:0 10:0 11:1 12:0 13:0 14:0 
1 0:0.69948469 1:0.70074736 2:0.71873187 3:0.73149507 4:0.71566051 5:0.66027369 6:0.6477835 7:0 8:1 9:1 10:0 11:0 12:0 13:0 14:0 
1 0:0.69286421 1:0.69948469 2:0.70074736 3:0.71873187 4:0.73149507 5:0.71566051 6:0.66027369 7:0 8:1 9:0 10:0 11:0 12:0 13:0 14:0 
-1 0:0.68481043 1:0.69286421 2:0.69948469 3:0.70074736 4:0.71873187 5:0.73149507 6:0.71566051 7:0 8:0 9:0 10:0 11:0 12:0 13:0 14:1 
1 0:0.72774119 1:0.68481043 2:0.69286421 3:0.69948469 4:0.70074736 5:0.71873187 6:0.73149507 7:0 8:0 9:0 10:0 11:0 12:0 13:1 14:0 
1 0:0.74347336 1:0.74593045 2:0.72774119 3:0.68481043 4:0.69286421 5:0.69948469 6:0.70074736 7:0 8:0 9:0 10:0 11:1 12:0 13:0 14:0 
-1 0:0.74811453 1:0.74347336 2:0.74593045 3:0.72774119 4:0.68481043 5:0.69286421 6:0.69948469 7:0 8:0 9:0 10:1 11:0 12:0 13:0 14:0 
-1 0:0.63508856 1:0.65232229 2:0.71439784 3:0.74811453 4:0.74347336 5:0.74593045 6:0.72774119 7:0 8:0 9:0 10:0 11:0 12:0 13:0 14:1 
-1 0:0.68689213 1:0.63508856 2:0.65232229 3:0.71439784 4:0.74811453 5:0.74347336 6:0.74593045 7:0 8:0 9:0 10:0 11:0 12:0 13:1 14:0 
-1 0:0.66576801 1:0.66593864 2:0.68689213 3:0.63508856 4:0.65232229 5:0.71439784 6:0.74811453 7:0 8:0 9:0 10:0 11:1 12:0 13:0 14:0 
-1 0:0.58659523 1:0.64266457 2:0.63464492 3:0.66576801 4:0.66593864 5:0.68689213 6:0.63508856 7:0 8:0 9:0 10:0 11:0 12:0 13:0 14:0 
-1 0:0.58488892 1:0.58659523 2:0.64266457 3:0.63464492 4:0.66576801 5:0.66593864 6:0.68689213 7:0 8:0 9:0 10:0 11:0 12:0 13:0 14:1 
-1 0:0.54479064 1:0.58488892 2:0.58659523 3:0.64266457 4:0.63464492 5:0.66576801 6:0.66593864 7:0 8:0 9:0 10:0 11:0 12:0 13:1 14:0 
-1 0:0.49960755 1:0.54479064 2:0.58488892 3:0.58659523 4:0.64266457 5:0.63464492 6:0.66576801 7:1 8:0 9:0 10:0 11:0 12:1 13:0 14:0 
-0.1657701898981933 0:0.43647408 1:0.49960755 2:0.54479064 3:0.58488892 4:0.58659523 5:0.64266457 6:0.63464492 7:1 8:0 9:0 10:0 11:1 12:0 13:0 14:0 
-1 0:0.41470157 1:0.43647408 2:0.49960755 3:0.54479064 4:0.58488892 5:0.58659523 6:0.64266457 7:1 8:0 9:0 10:1 11:0 12:0 13:0 14:0 
-1 0:0.40258677 1:0.41470157 2:0.43647408 3:0.49960755 4:0.54479064 5:0.58488892 6:0.58659523 7:1 8:1 9:1 10:0 11:0 12:0 13:0 14:0 
-1 0:0.40610176 1:0.40258677 2:0.41470157 3:0.43647408 4:0.49960755 5:0.54479064 6:0.58488892 7:1 8:1 9:0 10:0 11:0 12:0 13:0 14:0 
-0.1144272081047638 0:0.42343787 1:0.41118657 2:0.40610176 3:0.40258677 4:0.41470157 5:0.43647408 6:0.49960755 7:1 8:0 9:0 10:0 11:0 12:0 13:1 14:0 
1 0:0.42964884 1:0.42343787 2:0.41118657 3:0.40610176 4:0.40258677 5:0.41470157 6:0.43647408 7:0 8:0 9:0 10:0 11:0 12:1 13:0 14:0 
1 0:0.50581852 1:0.42964884 2:0.42343787 3:0.41118657 4:0.40610176 5:0.40258677 6:0.41470157 7:0 8:0 9:0 10:0 11:1 12:0 13:0 14:0 
1 0:0.59877828 1:0.59058799 2:0.50581852 3:0.42964884 4:0.42343787 5:0.41118657 6:0.40610176 7:0 8:0 9:1 10:0 11:0 12:0 13:0 14:0 
1 0:0.60908439 1:0.59877828 2:0.59058799 3:0.50581852 4:0.42964884 5:0.42343787 6:0.41118657 7:0 8:1 9:0 10:0 11:0 12:0 13:0 14:0 
0.8392359631327245 0:0.59676484 1:0.60908439 2:0.59877828 3:0.59058799 4:0.50581852 5:0.42964884 6:0.42343787 7:0 8:0 9:0 10:0 11:0 12:0 13:0 14:1 
1 0:0.65628093 1:0.59676484 2:0.60908439 3:0.59877828 4:0.59058799 5:0.50581852 6:0.42964884 7:0 8:0 9:0 10:0 11:0 12:0 13:1 14:0 
1 0:0.66300379 1:0.65628093 2:0.59676484 3:0.60908439 4:0.59877828 5:0.59058799 6:0.50581852 7:0 8:0 9:0 10:0 11:0 12:1 13:0 14:0 
-1 0:0.5737979 1:0.60911852 2:0.67249087 3:0.6774733 4:0.67276388 5:0.66300379 6:0.65628093 7:0 8:0 9:0 10:0 11:0 12:0 13:0 14:1 
-1 0:0.63972972 1:0.5737979 2:0.60911852 3:0.67249087 4:0.6774733 5:0.67276388 6:0.66300379 7:0 8:0 9:0 10:0 11:0 12:0 13:1 14:0 
-1 0:0.61724056 1:0.63972972 2:0.5737979 3:0.60911852 4:0.67249087 5:0.6774733 6:0.67276388 7:0 8:0 9:0 10:0 11:0 12:1 13:0 14:0 
-1 0:0.58782377 1:0.61724056 2:0.63972972 3:0.5737979 4:0.60911852 5:0.67249087 6:0.6774733 7:0 8:0 9:0 10:0 11:1 12:0 13:0 14:0 
1 0:0.57632324 1:0.58782377 2:0.61724056 3:0.63972972 4:0.5737979 5:0.60911852 6:0.67249087 7:0 8:0 9:0 10:1 11:0 12:0 13:0 14:0 
1 0:0.52049278 1:0.55475549 2:0.60676381 3:0.57632324 4:0.58782377 5:0.61724056 6:0.63972972 7:0 8:0 9:0 10:0 11:0 12:0 13:0 14:1 
1 0:0.63662424 1:0.52049278 2:0.55475549 3:0.60676381 4:0.57632324 5:0.58782377 6:0.61724056 7:0 8:0 9:0 10:0 11:0 12:0 13:1 14:0 
-0.4649529361923702 0:0.65280005 1:0.67320752 2:0.63662424 3:0.52049278 4:0.55475549 5:0.60676381 6:0.57632324 7:0 8:0 9:0 10:0 11:1 12:0 13:0 14:0 
1 0:0.5750947 1:0.63324574 2:0.63600996 3:0.65280005 4:0.67320752 5:0.63662424 6:0.52049278 7:0 8:1 9:0 10:0 11:0 12:0 13:0 14:0 
-1 0:0.62935536 1:0.56680203 2:0.5750947 3:0.63324574 4:0.63600996 5:0.65280005 6:0.67320752 7:0 8:0 9:0 10:0 11:0 12:0 13:1 14:0 
-1 0:0.60993755 1:0.60785585 2:0.62935536 3:0.56680203 4:0.5750947 5:0.63324574 6:0.63600996 7:0 8:0 9:0 10:0 11:1 12:0 13:0 14:0 
1 0:0.60256629 1:0.5175238 2:0.54700884 3:0.58816503 4:0.59447838 5:0.60993755 6:0.60785585 7:0 8:0 9:0 10:0 11:0 12:0 13:1 14:0 
-1 0:0.62962837 1:0.60256629 2:0.5175238 3:0.54700884 4:0.58816503 5:0.59447838 6:0.60993755 7:0 8:0 9:0 10:0 11:0 12:1 13:0 14:0 
-1 0:0.61178036 1:0.62962837 2:0.60256629 3:0.5175238 4:0.54700884 5:0.58816503 6:0.59447838 7:0 8:0 9:0 10:0 11:1 12:0 13:0 14:0 
1 0:0.57611849 1:0.61178036 2:0.62962837 3:0.60256629 4:0.5175238 5:0.54700884 6:0.58816503 7:0 8:0 9:0 10:1 11:0 12:0 13:0 14:0 
1 0:0.52789817 1:0.54632631 2:0.59673071 3:0.57611849 4:0.61178036 5:0.62962837 6:0.60256629 7:0 8:0 9:0 10:0 11:0 12:0 13:0 14:1 
-1 0:0.64467802 1:0.63242671 2:0.52789817 3:0.54632631 4:0.59673071 5:0.57611849 6:0.61178036 7:0 8:0 9:0 10:0 11:0 12:1 13:0 14:0 
-1 0:0.60915265 1:0.64467802 2:0.63242671 3:0.52789817 4:0.54632631 5:0.59673071 6:0.57611849 7:0 8:0 9:0 10:0 11:1 12:0 13:0 14:0 
-1 0:0.51540798 1:0.5430502 2:0.59352285 3:0.58557144 4:0.60915265 5:0.64467802 6:0.63242671 7:0 8:0 9:0 10:0 11:0 12:0 13:0 14:1 
-1 0:0.57308125 1:0.57215985 2:0.569498 3:0.51540798 4:0.5430502 5:0.59352285 6:0.58557144 7:0 8:0 9:0 10:0 11:1 12:0 13:0 14:0 
-1 0:0.56253626 1:0.57308125 2:0.57215985 3:0.569498 4:0.51540798 5:0.5430502 6:0.59352285 7:0 8:0 9:0 10:1 11:0 12:0 13:0 14:0 
-1 0:0.52206259 1:0.55697369 2:0.55345869 3:0.56253626 4:0.57308125 5:0.57215985 6:0.569498 7:1 8:0 9:0 10:0 11:0 12:0 13:0 14:1 
1 0:0.47131693 1:0.49261168 2:0.52206259 3:0.55697369 4:0.55345869 5:0.56253626 6:0.57308125 7:0 8:0 9:0 10:0 11:0 12:1 13:0 14:0 
1 0:0.55840699 1:0.47131693 2:0.49261168 3:0.52206259 4:0.55697369 5:0.55345869 6:0.56253626 7:0 8:0 9:0 10:0 11:1 12:0 13:0 14:0 
-1 0:0.57980412 1:0.55840699 2:0.47131693 3:0.49261168 4:0.52206259 5:0.55697369 6:0.55345869 7:0 8:0 9:0 10:1 11:0 12:0 13:0 14:0 
-1 0:0.55953315 1:0.49326008 2:0.52291574 3:0.55775859 4:0.57980412 5:0.55840699 6:0.47131693 7:0 8:0 9:0 10:0 11:0 12:0 13:1 14:0 
-1 0:0.52236972 1:0.56161485 2:0.55263966 3:0.55424359 4:0.55052384 5:0.55953315 6:0.49326008 7:0 8:1 9:0 10:0 11:0 12:0 13:0 14:0 
-1 0:0.49674095 1:0.5145207 2:0.56431082 3:0.55584752 4:0.54697471 5:0.5473501 6:0.54530253 7:0 8:0 9:0 10:0 11:0 12:0 13:0 14:1 
-1 0:0.55963553 1:0.55475549 2:0.55025083 3:0.49674095 4:0.5145207 5:0.56431082 6:0.55584752 7:0 8:0 9:0 10:0 11:1 12:0 13:0 14:0 
-0.7748675424205184 0:0.54861277 1:0.53919394 2:0.55963553 3:0.55475549 4:0.55025083 5:0.49674095 6:0.5145207 7:1 8:1 9:1 10:0 11:0 12:0 13:0 14:0 
-1 0:0.49213391 1:0.54861277 2:0.53919394 3:0.55963553 4:0.55475549 5:0.55025083 6:0.49674095 7:1 8:1 9:0 10:0 11:0 12:0 13:0 14:0 
1 0:0.41937686 1:0.49213391 2:0.54861277 3:0.53919394 4:0.55963553 5:0.55475549 6:0.55025083 7:1 8:0 9:0 10:0 11:0 12:0 13:0 14:1 
1 0:0.45131898 1:0.41937686 2:0.49213391 3:0.54861277 4:0.53919394 5:0.55963553 6:0.55475549 7:0 8:0 9:0 10:0 11:0 12:0 13:1 14:0 
-1 0:0.54994369 1:0.45131898 2:0.41937686 3:0.49213391 4:0.54861277 5:0.53919394 6:0.55963553 7:0 8:0 9:0 10:0 11:0 12:1 13:0 14:0 
1 0:0.55830461 1:0.54066137 2:0.53595195 3:0.54994369 4:0.45131898 5:0.41937686 6:0.49213391 7:0 8:1 9:1 10:0 11:0 12:0 13:0 14:0 
1 0:0.54117326 1:0.55830461 2:0.54066137 3:0.53595195 4:0.54994369 5:0.45131898 6:0.41937686 7:0 8:1 9:0 10:0 11:0 12:0 13:0 14:0 
1 0:0.52486094 1:0.54117326 2:0.55830461 3:0.54066137 4:0.53595195 5:0.54994369 6:0.45131898 7:0 8:0 9:0 10:0 11:0 12:0 13:0 14:1 
1 0:0.61666041 1:0.52486094 2:0.54117326 3:0.55830461 4:0.54066137 5:0.53595195 6:0.54994369 7:0 8:0 9:0 10:0 11:0 12:0 13:1 14:0 
-1 0:0.65979593 1:0.61666041 2:0.52486094 3:0.54117326 4:0.55830461 5:0.54066137 6:0.53595195 7:0 8:0 9:0 10:0 11:0 12:1 13:0 14:0 
-1 0:0.58997372 1:0.65979593 2:0.61666041 3:0.52486094 4:0.54117326 5:0.55830461 6:0.54066137 7:0 8:0 9:0 10:0 11:1 12:0 13:0 14:0 
1 0:0.59574105 1:0.59929018 2:0.58253421 3:0.49885677 4:0.52800055 5:0.57768829 6:0.57789305 7:0 8:0 9:0 10:0 11:1 12:0 13:0 14:0 
1 0:0.61631915 1:0.59574105 2:0.59929018 3:0.58253421 4:0.49885677 5:0.52800055 6:0.57768829 7:0 8:0 9:0 10:1 11:0 12:0 13:0 14:0 
-1 0:0.65901102 1:0.61631915 2:0.59574105 3:0.59929018 4:0.58253421 5:0.49885677 6:0.52800055 7:0 8:1 9:1 10:0 11:0 12:0 13:0 14:0 
-1 0:0.55004607 1:0.65901102 2:0.61631915 3:0.59574105 4:0.59929018 5:0.58253421 6:0.49885677 7:0 8:1 9:0 10:0 11:0 12:0 13:0 14:0 
-1 0:0.48783401 1:0.55004607 2:0.65901102 3:0.61631915 4:0.59574105 5:0.59929018 6:0.58253421 7:0 8:0 9:0 10:0 11:0 12:0 13:0 14:1 
-1 0:0.54397161 1:0.48783401 2:0.55004607 3:0.65901102 4:0.61631915 5:0.59574105 6:0.59929018 7:0 8:0 9:0 10:0 11:0 12:0 13:1 14:0 
1 0:0.5573832 1:0.48251032 2:0.51332628 3:0.54967068 4:0.55332219 5:0.55035321 6:0.54202641 7:0 8:0 9:0 10:0 11:0 12:0 13:1 14:0 
1 0:0.56956626 1:0.57881446 2:0.5573832 3:0.48251032 4:0.51332628 5:0.54967068 6:0.55332219 7:0 8:0 9:0 10:0 11:1 12:0 13:0 14:0 
-0.6754883446404213 0:0.52571409 1:0.59625294 2:0.60352182 3:0.56956626 4:0.57881446 5:0.5573832 6:0.48251032 7:1 8:1 9:0 10:0 11:0 12:0 13:0 14:0 
-1 0:0.47438829 1:0.52571409 2:0.59625294 3:0.60352182 4:0.56956626 5:0.57881446 6:0.5573832 7:1 8:0 9:0 10:0 11:0 12:0 13:0 14:1 
1 0:0.44166126 1:0.47438829 2:0.52571409 3:0.59625294 4:0.60352182 5:0.56956626 6:0.57881446 7:0 8:0 9:0 10:0 11:0 12:0 13:1 14:0 
1 0:0.54666758 1:0.44166126 2:0.47438829 3:0.52571409 4:0.59625294 5:0.60352182 6:0.56956626 7:0 8:0 9:0 10:0 11:0 12:1 13:0 14:0 
1 0:0.59543391 1:0.54666758 2:0.44166126 3:0.47438829 4:0.52571409 5:0.59625294 6:0.60352182 7:0 8:0 9:0 10:0 11:1 12:0 13:0 14:0 
-1 0:0.66105859 1:0.59543391 2:0.54666758 3:0.44166126 4:0.47438829 5:0.52571409 6:0.59625294 7:0 8:0 9:0 10:1 11:0 12:0 13:0 14:0 
-1 0:0.63229021 1:0.66105859 2:0.59543391 3:0.54666758 4:0.44166126 5:0.47438829 6:0.52571409 7:0 8:1 9:1 10:0 11:0 12:0 13:0 14:0 
-1 0:0.55212777 1:0.63229021 2:0.66105859 3:0.59543391 4:0.54666758 5:0.44166126 6:0.47438829 7:0 8:1 9:0 10:0 11:0 12:0 13:0 14:0 
1 0:0.50165512 1:0.55212777 2:0.63229021 3:0.66105859 4:0.59543391 5:0.54666758 6:0.44166126 7:0 8:0 9:0 10:0 11:0 12:0 13:0 14:1 
-1 0:0.61270177 1:0.50165512 2:0.55212777 3:0.63229021 4:0.66105859 5:0.59543391 6:0.54666758 7:0 8:0 9:0 10:0 11:0 12:0 13:1 14:0 
-1 0:0.57854145 1:0.61270177 2:0.50165512 3:0.55212777 4:0.63229021 5:0.66105859 6:0.59543391 7:0 8:0 9:0 10:0 11:0 12:1 13:0 14:0 
-1 0:0.5379654 1:0.57325189 2:0.56809883 3:0.56468621 4:0.57854145 5:0.61270177 6:0.50165512 7:0 8:1 9:0 10:0 11:0 12:0 13:0 14:0 
1 0:0.56932737 1:0.48394362 2:0.5379654 3:0.57325189 4:0.56809883 5:0.56468621 6:0.57854145 7:0 8:0 9:0 10:0 11:0 12:0 13:1 14:0 
1 0:0.5977545 1:0.56932737 2:0.48394362 3:0.5379654 4:0.57325189 5:0.56809883 6:0.56468621 7:0 8:0 9:0 10:0 11:0 12:1 13:0 14:0 
1 0:0.68027164 1:0.5977545 2:0.56932737 3:0.48394362 4:0.5379654 5:0.57325189 6:0.56809883 7:0 8:0 9:0 10:0 11:1 12:0 13:0 14:0 
1 0:0.70627581 1:0.68027164 2:0.5977545 3:0.56932737 4:0.48394362 5:0.5379654 6:0.57325189 7:0 8:0 9:0 10:1 11:0 12:0 13:0 14:0 
-1 0:0.729584 1:0.70627581 2:0.68027164 3:0.5977545 4:0.56932737 5:0.48394362 6:0.5379654 7:0 8:1 9:1 10:0 11:0 12:0 13:0 14:0 
-1 0:0.6170358 1:0.729584 2:0.70627581 3:0.68027164 4:0.5977545 5:0.56932737 6:0.48394362 7:0 8:1 9:0 10:0 11:0 12:0 13:0 14:0 
1 0:0.53649797 1:0.6170358 2:0.729584 3:0.70627581 4:0.68027164 5:0.5977545 6:0.56932737 7:0 8:0 9:0 10:0 11:0 12:0 13:0 14:1 
1 0:0.6704433 1:0.53649797 2:0.6170358 3:0.729584 4:0.70627581 5:0.68027164 6:0.5977545 7:0 8:0 9:0 10:0 11:0 12:0 13:1 14:0 
-1 0:0.71944852 1:0.71975566 2:0.6704433 3:0.53649797 4:0.6170358 5:0.729584 6:0.70627581 7:0 8:0 9:0 10:0 11:1 12:0 13:0 14:0 
1 0:0.69235232 1:0.71944852 2:0.71975566 3:0.6704433 4:0.53649797 5:0.6170358 6:0.729584 7:0 8:0 9:0 10:1 11:0 12:0 13:0 14:0 
1 0:0.72572774 1:0.69235232 2:0.71944852 3:0.71975566 4:0.6704433 5:0.53649797 6:0.6170358 7:0 8:1 9:1 10:0 11:0 12:0 13:0 14:0 
1 0:0.70917653 1:0.72572774 2:0.69235232 3:0.71944852 4:0.71975566 5:0.6704433 6:0.53649797 7:0 8:1 9:0 10:0 11:0 12:0 13:0 14:0 
1 0:0.73565847 1:0.70917653 2:0.72572774 3:0.69235232 4:0.71944852 5:0.71975566 6:0.6704433 7:0 8:0 9:0 10:0 11:0 12:0 13:0 14:1 
-1 0:0.82343105 1:0.73565847 2:0.70917653 3:0.72572774 4:0.69235232 5:0.71944852 6:0.71975566 7:0 8:0 9:0 10:0 11:0 12:0 13:1 14:0 
1 0:0.77500597 1:0.82343105 2:0.73565847 3:0.70917653 4:0.72572774 5:0.69235232 6:0.71944852 7:0 8:0 9:0 10:0 11:0 12:1 13:0 14:0 
1 0:0.82561512 1:0.77500597 2:0.82343105 3:0.73565847 4:0.70917653 5:0.72572774 6:0.69235232 7:0 8:0 9:0 10:0 11:1 12:0 13:0 14:0 
-1 0:0.85001536 1:0.82561512 2:0.77500597 3:0.82343105 4:0.73565847 5:0.70917653 6:0.72572774 7:0 8:0 9:0 10:1 11:0 12:0 13:0 14:0 
-1 0:0.79114766 1:0.85001536 2:0.82561512 3:0.77500597 4:0.82343105 5:0.73565847 6:0.70917653 7:0 8:1 9:1 10:0 11:0 12:0 13:0 14:0 
-1 0:0.69255708 1:0.79114766 2:0.85001536 3:0.82561512 4:0.77500597 5:0.82343105 6:0.73565847 7:0 8:1 9:0 10:0 11:0 12:0 13:0 14:0 
1 0:0.73941235 1:0.73210934 2:0.73695526 3:0.63768215 4:0.69255708 5:0.79114766 6:0.85001536 7:0 8:0 9:0 10:0 11:1 12:0 13:0 14:0 
1 0:0.75592943 1:0.7616285 2:0.73941235 3:0.73210934 4:0.73695526 5:0.63768215 6:0.69255708 7:0 8:1 9:1 10:0 11:0 12:0 13:0 14:0 
-1 0:0.70528615 1:0.75592943 2:0.7616285 3:0.73941235 4:0.73210934 5:0.73695526 6:0.63768215 7:0 8:1 9:0 10:0 11:0 12:0 13:0 14:0 
1 0:0.63754564 1:0.70528615 2:0.75592943 3:0.7616285 4:0.73941235 5:0.73210934 6:0.73695526 7:0 8:0 9:0 10:0 11:0 12:0 13:0 14:1 
1 0:0.76988704 1:0.77719005 2:0.77316316 3:0.63754564 4:0.70528615 5:0.75592943 6:0.7616285 7:0 8:0 9:0 10:0 11:1 12:0 13:0 14:0 
1 0:0.78899771 1:0.76988704 2:0.77719005 3:0.77316316 4:0.63754564 5:0.70528615 6:0.75592943 7:0 8:0 9:0 10:1 11:0 12:0 13:0 14:0 
1 0:0.82213425 1:0.78899771 2:0.76988704 3:0.77719005 4:0.77316316 5:0.63754564 6:0.70528615 7:0 8:1 9:1 10:0 11:0 12:0 13:0 14:0 
1 0:0.78449306 1:0.82213425 2:0.78899771 3:0.76988704 4:0.77719005 5:0.77316316 6:0.63754564 7:0 8:1 9:0 10:0 11:0 12:0 13:0 14:0 
1 0:0.75514452 1:0.78449306 2:0.82213425 3:0.78899771 4:0.76988704 5:0.77719005 6:0.77316316 7:0 8:0 9:0 10:0 11:0 12:0 13:0 14:1 
1 0:0.85595332 1:0.75514452 2:0.78449306 3:0.82213425 4:0.78899771 5:0.76988704 6:0.77719005 7:0 8:0 9:0 10:0 11:0 12:0 13:1 14:0 
1 0:0.83476095 1:0.85022011 2:0.86984268 3:0.85595332 4:0.75514452 5:0.78449306 6:0.82213425 7:0 8:0 9:0 10:1 11:0 12:0 13:0 14:0 
1 0:0.85585094 1:0.83476095 2:0.85022011 3:0.86984268 4:0.85595332 5:0.75514452 6:0.78449306 7:0 8:1 9:1 10:0 11:0 12:0 13:0 14:0 
-1 0:0.8091663 1:0.85585094 2:0.83476095 3:0.85022011 4:0.86984268 5:0.85595332 6:0.75514452 7:0 8:1 9:0 10:0 11:0 12:0 13:0 14:0 
-1 0:0.74630584 1:0.8091663 2:0.85585094 3:0.83476095 4:0.85022011 5:0.86984268 6:0.85595332 7:0 8:0 9:0 10:0 11:0 12:0 13:0 14:1 
-1 0:0.83407842 1:0.82489847 2:0.80943931 3:0.74630584 4:0.8091663 5:0.85585094 6:0.83476095 7:0 8:0 9:0 10:0 11:1 12:0 13:0 14:0 
-1 0:0.77780432 1:0.78070505 2:0.83407842 3:0.82489847 4:0.80943931 5:0.74630584 6:0.8091663 7:0 8:1 9:1 10:0 11:0 12:0 13:0 14:0 
-1 0:0.68699451 1:0.77780432 2:0.78070505 3:0.83407842 4:0.82489847 5:0.80943931 6:0.74630584 7:0 8:1 9:0 10:0 11:0 12:0 13:0 14:0 
1 0:0.60659318 1:0.68699451 2:0.77780432 3:0.78070505 4:0.83407842 5:0.82489847 6:0.80943931 7:0 8:0 9:0 10:0 11:0 12:0 13:0 14:1 
1 0:0.77463058 1:0.60659318 2:0.68699451 3:0.77780432 4:0.78070505 5:0.83407842 6:0.82489847 7:0 8:0 9:0 10:0 11:0 12:0 13:1 14:0 
1 0:0.8086544 1:0.77463058 2:0.60659318 3:0.68699451 4:0.77780432 5:0.78070505 6:0.83407842 7:0 8:0 9:0 10:0 11:0 12:1 13:0 14:0 
1 0:0.83564823 1:0.8086544 2:0.77463058 3:0.60659318 4:0.68699451 5:0.77780432 6:0.78070505 7:0 8:0 9:0 10:0 11:1 12:0 13:0 14:0 
-1 0:0.8397775 1:0.83564823 2:0.8086544 3:0.77463058 4:0.60659318 5:0.68699451 6:0.77780432 7:0 8:0 9:0 10:1 11:0 12:0 13:0 14:0 
0.3225691564177635 0:0.7017029 1:0.78811043 2:0.8397775 3:0.83564823 4:0.8086544 5:0.77463058 6:0.60659318 7:0 8:1 9:0 10:0 11:0 12:0 13:0 14:0 
1 0:0.68013514 1:0.7017029 2:0.78811043 3:0.8397775 4:0.83564823 5:0.8086544 6:0.77463058 7:0 8:0 9:0 10:0 11:0 12:0 13:0 14:1 
-1 0:0.80674334 1:0.81373921 2:0.82080333 3:0.68013514 4:0.7017029 5:0.78811043 6:0.8397775 7:0 8:0 9:0 10:0 11:1 12:0 13:0 14:0 
-1 0:0.78422005 1:0.80674334 2:0.81373921 3:0.82080333 4:0.68013514 5:0.7017029 6:0.78811043 7:0 8:0 9:0 10:1 11:0 12:0 13:0 14:0 
1 0:0.76681568 1:0.78422005 2:0.80674334 3:0.81373921 4:0.82080333 5:0.68013514 6:0.7017029 7:0 8:1 9:1 10:0 11:0 12:0 13:0 14:0 
-1 0:0.74190356 1:0.76681568 2:0.78422005 3:0.80674334 4:0.81373921 5:0.82080333 6:0.68013514 7:0 8:1 9:0 10:0 11:0 12:0 13:0 14:0 
-1 0:0.66505136 1:0.74190356 2:0.76681568 3:0.78422005 4:0.80674334 5:0.81373921 6:0.82080333 7:0 8:0 9:0 10:0 11:0 12:0 13:0 14:1 
-1 0:0.70675357 1:0.66505136 2:0.74190356 3:0.76681568 4:0.78422005 5:0.80674334 6:0.81373921 7:0 8:0 9:0 10:0 11:0 12:0 13:1 14:0 
-1 0:0.70009897 1:0.70675357 2:0.66505136 3:0.74190356 4:0.76681568 5:0.78422005 6:0.80674334 7:0 8:0 9:0 10:0 11:0 12:1 13:0 14:0 
-1 0:0.66696243 1:0.70009897 2:0.70675357 3:0.66505136 4:0.74190356 5:0.76681568 6:0.78422005 7:0 8:0 9:0 10:0 11:1 12:0 13:0 14:0 
1 0:0.59441013 1:0.61160973 2:0.647647 3:0.62966249 4:0.66696243 5:0.70009897 6:0.70675357 7:0 8:0 9:0 10:0 11:0 12:0 13:0 14:1 
1 0:0.693888 1:0.59441013 2:0.61160973 3:0.647647 4:0.62966249 5:0.66696243 6:0.70009897 7:0 8:0 9:0 10:0 11:0 12:0 13:1 14:0 
1 0:0.73402041 1:0.693888 2:0.59441013 3:0.61160973 4:0.647647 5:0.62966249 6:0.66696243 7:0 8:0 9:0 10:0 11:0 12:1 13:0 14:0 
-1 0:0.64303996 1:0.72368017 2:0.73094905 3:0.75708972 4:0.73402041 5:0.693888 6:0.59441013 7:0 8:1 9:0 10:0 11:0 12:0 13:0 14:0 
-1 0:0.68003276 1:0.59516091 2:0.64303996 3:0.72368017 4:0.73094905 5:0.75708972 6:0.73402041 7:0 8:0 9:0 10:0 11:0 12:0 13:1 14:0 
-1 0:0.65948879 1:0.68003276 2:0.59516091 3:0.64303996 4:0.72368017 5:0.73094905 6:0.75708972 7:0 8:0 9:0 10:0 11:0 12:1 13:0 14:0 
-1 0:0.65675869 1:0.64109477 2:0.65948879 3:0.68003276 4:0.59516091 5:0.64303996 6:0.72368017 7:0 8:0 9:0 10:1 11:0 12:0 13:0 14:0 
1 0:0.64119715 1:0.65675869 2:0.64109477 3:0.65948879 4:0.68003276 5:0.59516091 6:0.64303996 7:1 8:1 9:1 10:0 11:0 12:0 13:0 14:0 
-1 0:0.53782889 1:0.59464901 2:0.64119715 3:0.65675869 4:0.64109477 5:0.65948879 6:0.68003276 7:1 8:0 9:0 10:0 11:0 12:0 13:0 14:1 
1 0:0.50510187 1:0.53782889 2:0.59464901 3:0.64119715 4:0.65675869 5:0.64109477 6:0.65948879 7:0 8:0 9:0 10:0 11:0 12:0 13:1 14:0 
1 0:0.68402553 1:0.50510187 2:0.53782889 3:0.59464901 4:0.64119715 5:0.65675869 6:0.64109477 7:0 8:0 9:0 10:0 11:0 12:1 13:0 14:0 
1 0:0.71299867 1:0.68402553 2:0.50510187 3:0.53782889 4:0.59464901 5:0.64119715 6:0.65675869 7:0 8:0 9:0 10:0 11:1 12:0 13:0 14:0 
1 0:0.74944545 1:0.71299867 2:0.68402553 3:0.50510187 4:0.53782889 5:0.59464901 6:0.64119715 7:0 8:0 9:0 10:1 11:0 12:0 13:0 14:0 
-1 0:0.75149302 1:0.74944545 2:0.71299867 3:0.68402553 4:0.50510187 5:0.53782889 6:0.59464901 7:0 8:1 9:1 10:0 11:0 12:0 13:0 14:0 
-1 0:0.57724465 1:0.62348565 2:0.75149302 3:0.74944545 4:0.71299867 5:0.68402553 6:0.50510187 7:0 8:0 9:0 10:0 11:0 12:0 13:0 14:1 
-1 0:0.59751561 1:0.57724465 2:0.62348565 3:0.75149302 4:0.74944545 5:0.71299867 6:0.68402553 7:0 8:0 9:0 10:0 11:0 12:0 13:1 14:0 
-1 0:0.58014538 1:0.59751561 2:0.57724465 3:0.62348565 4:0.75149302 5:0.74944545 6:0.71299867 7:0 8:0 9:0 10:0 11:0 12:1 13:0 14:0 
-1 0:0.56898611 1:0.58014538 2:0.59751561 3:0.57724465 4:0.62348565 5:0.75149302 6:0.74944545 7:0 8:0 9:0 10:0 11:1 12:0 13:0 14:0 
-1 0:0.53103778 1:0.56499335 2:0.55748558 3:0.56898611 4:0.58014538 5:0.59751561 6:0.57724465 7:0 8:1 9:0 10:0 11:0 12:0 13:0 14:0 
1 0:0.49609255 1:0.53103778 2:0.56499335 3:0.55748558 4:0.56898611 5:0.58014538 6:0.59751561 7:0 8:0 9:0 10:0 11:0 12:0 13:0 14:1 
1 0:0.60041634 1:0.59410299 2:0.49609255 3:0.53103778 4:0.56499335 5:0.55748558 6:0.56898611 7:0 8:0 9:0 10:0 11:0 12:1 13:0 14:0 
1 0:0.62164284 1:0.60041634 2:0.59410299 3:0.49609255 4:0.53103778 5:0.56499335 6:0.55748558 7:0 8:0 9:0 10:0 11:1 12:0 13:0 14:0 
-1 0:0.66051258 1:0.62164284 2:0.60041634 3:0.59410299 4:0.49609255 5:0.53103778 6:0.56499335 7:0 8:0 9:0 10:1 11:0 12:0 13:0 14:0 
-1 0:0.55158175 1:0.66051258 2:0.62164284 3:0.60041634 4:0.59410299 5:0.49609255 6:0.53103778 7:1 8:1 9:1 10:0 11:0 12:0 13:0 14:0 
-1 0:0.41691977 1:0.43115039 2:0.55158175 3:0.66051258 4:0.62164284 5:0.60041634 6:0.59410299 7:1 8:0 9:0 10:0 11:0 12:0 13:0 14:1 
1 0:0.40971914 1:0.41691977 2:0.43115039 3:0.55158175 4:0.66051258 5:0.62164284 6:0.60041634 7:1 8:0 9:0 10:0 11:0 12:0 13:1 14:0 
1 0:0.43019486 1:0.40971914 2:0.41691977 3:0.43115039 4:0.55158175 5:0.66051258 6:0.62164284 7:1 8:0 9:0 10:0 11:0 12:1 13:0 14:0 
1 0:0.47097567 1:0.43019486 2:0.40971914 3:0.41691977 4:0.43115039 5:0.55158175 6:0.66051258 7:1 8:0 9:0 10:0 11:1 12:0 13:0 14:0 
1 0:0.49547828 1:0.47097567 2:0.43019486 3:0.40971914 4:0.41691977 5:0.43115039 6:0.55158175 7:1 8:0 9:0 10:1 11:0 12:0 13:0 14:0 
1 0:0.51216599 1:0.49547828 2:0.47097567 3:0.43019486 4:0.40971914 5:0.41691977 6:0.43115039 7:0 8:0 9:1 10:0 11:0 12:0 13:0 14:0 
-1 0:0.57659625 1:0.57762004 2:0.53748763 3:0.54380098 4:0.51216599 5:0.49547828 6:0.47097567 7:0 8:0 9:0 10:0 11:0 12:1 13:0 14:0 
-1 0:0.57420742 1:0.56642665 2:0.57659625 3:0.57762004 4:0.53748763 5:0.54380098 6:0.51216599 7:0 8:0 9:0 10:1 11:0 12:0 13:0 14:0 
-1 0:0.52424666 1:0.56192199 2:0.57420742 3:0.56642665 4:0.57659625 5:0.57762004 6:0.53748763 7:0 8:1 9:0 10:0 11:0 12:0 13:0 14:0 
-1 0:0.55403884 1:0.48571819 2:0.50909463 3:0.55782684 4:0.55577927 5:0.54820326 6:0.54932942 7:0 8:0 9:0 10:0 11:0 12:0 13:1 14:0 
-1 0:0.47694775 1:0.4968092 2:0.5401836 3:0.54253831 4:0.53994472 5:0.54059311 6:0.55403884 7:0 8:0 9:0 10:0 11:0 12:0 13:0 14:1 
-1 0:0.50506774 1:0.53114016 2:0.56932737 3:0.56137597 4:0.55929427 5:0.54608743 6:0.53318773 7:0 8:0 9:0 10:0 11:0 12:0 13:0 14:1 
-1 0:0.55195714 1:0.48708323 2:0.50919701 3:0.55120636 4:0.55141112 5:0.55154762 6:0.55055796 7:0 8:0 9:0 10:0 11:0 12:0 13:1 14:0 
-1 0:0.56847422 1:0.56509572 2:0.55287854 3:0.54236768 4:0.55195714 5:0.48708323 6:0.50919701 7:0 8:1 9:1 10:0 11:0 12:0 13:0 14:0 
1 0:0.57932635 1:0.56274102 2:0.55352694 3:0.55223015 4:0.49312357 5:0.5117906 6:0.55936252 7:0 8:0 9:0 10:1 11:0 12:0 13:0 14:0 
1 0:0.58669761 1:0.57908747 2:0.57826844 3:0.51127871 4:0.54601918 5:0.60574003 6:0.57932635 7:0 8:0 9:0 10:0 11:1 12:0 13:0 14:0 
1 0:0.62942361 1:0.58669761 2:0.57908747 3:0.57826844 4:0.51127871 5:0.54601918 6:0.60574003 7:0 8:0 9:0 10:1 11:0 12:0 13:0 14:0 
1 0:0.63781865 1:0.62942361 2:0.58669761 3:0.57908747 4:0.57826844 5:0.51127871 6:0.54601918 7:0 8:1 9:1 10:0 11:0 12:0 13:0 14:0 
1 0:0.61413507 1:0.63781865 2:0.62942361 3:0.58669761 4:0.57908747 5:0.57826844 6:0.51127871 7:0 8:1 9:0 10:0 11:0 12:0 13:0 14:0 
1 0:0.63979797 1:0.65378971 2:0.65843088 3:0.59744736 4:0.61413507 5:0.63781865 6:0.62942361 7:0 8:0 9:0 10:0 11:1 12:0 13:0 14:0 
1 0:0.65464287 1:0.63979797 2:0.65378971 3:0.65843088 4:0.59744736 5:0.61413507 6:0.63781865 7:0 8:0 9:0 10:1 11:0 12:0 13:0 14:0 
1 0:0.67392417 1:0.65464287 2:0.63979797 3:0.65378971 4:0.65843088 5:0.59744736 6:0.61413507 7:0 8:1 9:1 10:0 11:0 12:0 13:0 14:0 
-1 0:0.60720745 1:0.63246084 2:0.67392417 3:0.65464287 4:0.63979797 5:0.65378971 6:0.65843088 7:0 8:0 9:0 10:0 11:0 12:0 13:0 14:1 
1 0:0.67286626 1:0.66515374 2:0.66061495 3:0.66580214 4:0.66354981 5:0.60720745 6:0.63246084 7:0 8:1 9:1 10:0 11:0 12:0 13:0 14:0 
-1 0:0.66334505 1:0.66890762 2:0.60669556 3:0.62962837 4:0.67286626 5:0.66515374 6:0.66061495 7:0 8:0 9:0 10:0 11:0 12:1 13:0 14:0 
-1 0:0.63386001 1:0.63153943 2:0.64290346 3:0.66334505 4:0.66890762 5:0.60669556 6:0.62962837 7:0 8:0 9:1 10:0 11:0 12:0 13:0 14:0 
-0.1231900179273275 0:0.60256629 1:0.63386001 2:0.63153943 3:0.64290346 4:0.66334505 5:0.66890762 6:0.60669556 7:1 8:1 9:0 10:0 11:0 12:0 13:0 14:0 
1 0:0.52854657 1:0.60256629 2:0.63386001 3:0.63153943 4:0.64290346 5:0.66334505 6:0.66890762 7:1 8:0 9:0 10:0 11:0 12:0 13:0 14:1 
1 0:0.57741528 1:0.52854657 2:0.60256629 3:0.63386001 4:0.63153943 5:0.64290346 6:0.66334505 7:1 8:0 9:0 10:0 11:0 12:0 13:1 14:0 
1 0:0.65778248 1:0.57741528 2:0.52854657 3:0.60256629 4:0.63386001 5:0.63153943 6:0.64290346 7:0 8:0 9:0 10:0 11:0 12:1 13:0 14:0 
1 0:0.70238542 1:0.65778248 2:0.57741528 3:0.52854657 4:0.60256629 5:0.63386001 6:0.63153943 7:0 8:0 9:0 10:0 11:1 12:0 13:0 14:0 
1 0:0.63949084 1:0.71340818 2:0.71651367 3:0.70238542 4:0.65778248 5:0.57741528 6:0.52854657 7:0 8:1 9:0 10:0 11:0 12:0 13:0 14:0 
-1 0:0.61519298 1:0.63949084 2:0.71340818 3:0.71651367 4:0.70238542 5:0.65778248 6:0.57741528 7:0 8:0 9:0 10:0 11:0 12:0 13:0 14:1 
-1 0:0.57355902 1:0.60021158 2:0.64795413 3:0.65955704 4:0.66290141 5:0.66368631 6:0.672525 7:0 8:0 9:0 10:0 11:0 12:0 13:0 14:1 
-1 0:0.61522711 1:0.57355902 2:0.60021158 3:0.64795413 4:0.65955704 5:0.66290141 6:0.66368631 7:0 8:0 9:0 10:0 11:0 12:0 13:1 14:0 
-1 0:0.57608436 1:0.5786097 2:0.61522711 3:0.57355902 4:0.60021158 5:0.64795413 6:0.65955704 7:0 8:0 9:0 10:0 11:1 12:0 13:0 14:0 
-1 0:0.54373272 1:0.57608436 2:0.5786097 3:0.61522711 4:0.57355902 5:0.60021158 6:0.64795413 7:0 8:0 9:0 10:1 11:0 12:0 13:0 14:0 
-1 0:0.51052793 1:0.54373272 2:0.57608436 3:0.5786097 4:0.61522711 5:0.57355902 6:0.60021158 7:0 8:0 9:1 10:0 11:0 12:0 13:0 14:0 
1 0:0.45705218 1:0.46196635 2:0.45899737 3:0.46834795 4:0.51052793 5:0.54373272 6:0.57608436 7:1 8:0 9:0 10:0 11:0 12:1 13:0 14:0 
0.004332209543297415 0:0.45609665 1:0.46858683 2:0.45705218 3:0.46196635 4:0.45899737 5:0.46834795 6:0.51052793 7:1 8:0 9:0 10:1 11:0 12:0 13:0 14:0 
1 0:0.47210183 1:0.47626523 2:0.45609665 3:0.46858683 4:0.45705218 5:0.46196635 6:0.45899737 7:0 8:0 9:0 10:0 11:0 12:0 13:0 14:0 
-1 0:0.54038836 1:0.47210183 2:0.47626523 3:0.45609665 4:0.46858683 5:0.45705218 6:0.46196635 7:0 8:0 9:0 10:0 11:0 12:0 13:0 14:1 
1 0:0.56356005 1:0.55656417 2:0.54038836 3:0.47210183 4:0.47626523 5:0.45609665 6:0.46858683 7:0 8:0 9:0 10:0 11:0 12:1 13:0 14:0 
1 0:0.59765212 1:0.56356005 2:0.55656417 3:0.54038836 4:0.47210183 5:0.47626523 6:0.45609665 7:0 8:0 9:0 10:0 11:1 12:0 13:0 14:0 
1 0:0.65006996 1:0.59765212 2:0.56356005 3:0.55656417 4:0.54038836 5:0.47210183 6:0.47626523 7:0 8:0 9:0 10:1 11:0 12:0 13:0 14:0 
1 0:0.65785073 1:0.65006996 2:0.59765212 3:0.56356005 4:0.55656417 5:0.54038836 6:0.47210183 7:0 8:1 9:1 10:0 11:0 12:0 13:0 14:0 
1 0:0.64771525 1:0.58604921 2:0.61218988 3:0.65785073 4:0.65006996 5:0.59765212 6:0.56356005 7:0 8:0 9:0 10:0 11:0 12:0 13:1 14:0 
1 0:0.69289834 1:0.64771525 2:0.58604921 3:0.61218988 4:0.65785073 5:0.65006996 6:0.59765212 7:0 8:0 9:0 10:0 11:0 12:1 13:0 14:0 
1 0:0.70572979 1:0.72269051 2:0.69289834 3:0.64771525 4:0.58604921 5:0.61218988 6:0.65785073 7:0 8:0 9:0 10:1 11:0 12:0 13:0 14:0 
1 0:0.62529434 1:0.68539057 2:0.70112275 3:0.70091799 4:0.69614033 5:0.69207931 6:0.61294065 7:0 8:1 9:0 10:0 11:0 12:0 13:0 14:0 
-1 0:0.68549295 1:0.69265945 2:0.60952803 3:0.62529434 4:0.68539057 5:0.70112275 6:0.70091799 7:0 8:0 9:0 10:0 11:0 12:1 13:0 14:0 
1 0:0.65675869 1:0.68549295 2:0.69265945 3:0.60952803 4:0.62529434 5:0.68539057 6:0.70112275 7:0 8:0 9:0 10:0 11:1 12:0 13:0 14:0 
1 0:0.67324165 1:0.65675869 2:0.68549295 3:0.69265945 4:0.60952803 5:0.62529434 6:0.68539057 7:0 8:0 9:0 10:1 11:0 12:0 13:0 14:0 
1 0:0.63362113 1:0.69064601 2:0.67324165 3:0.65675869 4:0.68549295 5:0.69265945 6:0.60952803 7:0 8:1 9:0 10:0 11:0 12:0 13:0 14:0 
0.03721207989639323 0:0.62973074 1:0.63362113 2:0.69064601 3:0.67324165 4:0.65675869 5:0.68549295 6:0.69265945 7:0 8:0 9:0 10:0 11:0 12:0 13:0 14:1 
-1 0:0.72487459 1:0.71743507 2:0.62973074 3:0.63362113 4:0.69064601 5:0.67324165 6:0.65675869 7:0 8:0 9:0 10:0 11:0 12:1 13:0 14:0 
0.914115403657919 0:0.68040815 1:0.68460567 2:0.72487459 3:0.71743507 4:0.62973074 5:0.63362113 6:0.69064601 7:0 8:0 9:0 10:1 11:0 12:0 13:0 14:0 
-0.519798875288313 0:0.69474115 1:0.62051667 2:0.6385353 3:0.69221581 4:0.68040815 5:0.68460567 6:0.72487459 7:0 8:0 9:0 10:0 11:0 12:0 13:1 14:0 
1 0:0.68317237 1:0.69474115 2:0.62051667 3:0.6385353 4:0.69221581 5:0.68040815 6:0.68460567 7:0 8:0 9:0 10:0 11:0 12:1 13:0 14:0 
-1 0:0.67784868 1:0.58284135 2:0.61041532 3:0.68361601 4:0.69296659 5:0.69716411 6:0.68317237 7:0 8:0 9:0 10:0 11:0 12:0 13:1 14:0 
-1 0:0.65983005 1:0.67784868 2:0.58284135 3:0.61041532 4:0.68361601 5:0.69296659 6:0.69716411 7:0 8:0 9:0 10:0 11:0 12:1 13:0 14:0 
-1 0:0.63573696 1:0.63092516 2:0.65983005 3:0.67784868 4:0.58284135 5:0.61041532 6:0.68361601 7:0 8:0 9:0 10:1 11:0 12:0 13:0 14:0 
1 0:0.6041361 1:0.63573696 2:0.63092516 3:0.65983005 4:0.67784868 5:0.58284135 6:0.61041532 7:0 8:1 9:1 10:0 11:0 12:0 13:0 14:0 
1 0:0.57335426 1:0.6041361 2:0.63573696 3:0.63092516 4:0.65983005 5:0.67784868 6:0.58284135 7:0 8:1 9:0 10:0 11:0 12:0 13:0 14:0 
1 0:0.64460977 1:0.56693854 2:0.57335426 3:0.6041361 4:0.63573696 5:0.63092516 6:0.65983005 7:0 8:0 9:0 10:0 11:0 12:0 13:1 14:0 
-1 0:0.66501723 1:0.64460977 2:0.56693854 3:0.57335426 4:0.6041361 5:0.63573696 6:0.63092516 7:0 8:0 9:0 10:0 11:0 12:1 13:0 14:0 
-1 0:0.62007303 1:0.66501723 2:0.64460977 3:0.56693854 4:0.57335426 5:0.6041361 6:0.63573696 7:0 8:0 9:0 10:0 11:1 12:0 13:0 14:0 
1 0:0.597891 1:0.62007303 2:0.66501723 3:0.64460977 4:0.56693854 5:0.57335426 6:0.6041361 7:0 8:0 9:0 10:1 11:0 12:0 13:0 14:0 
-1 0:0.65136675 1:0.597891 2:0.62007303 3:0.66501723 4:0.64460977 5:0.56693854 6:0.57335426 7:0 8:1 9:1 10:0 11:0 12:0 13:0 14:0 
-1 0:0.54485889 1:0.65136675 2:0.597891 3:0.62007303 4:0.66501723 5:0.64460977 6:0.56693854 7:0 8:1 9:0 10:0 11:0 12:0 13:0 14:0 
-1 0:0.58778965 1:0.51151759 2:0.54485889 3:0.65136675 4:0.597891 5:0.62007303 6:0.66501723 7:0 8:0 9:0 10:0 11:0 12:0 13:1 14:0 
-1 0:0.56942975 1:0.58778965 2:0.51151759 3:0.54485889 4:0.65136675 5:0.597891 6:0.62007303 7:0 8:0 9:0 10:0 11:0 12:1 13:0 14:0 
-1 0:0.55632529 1:0.56942975 2:0.58778965 3:0.51151759 4:0.54485889 5:0.65136675 6:0.597891 7:0 8:0 9:0 10:0 11:1 12:0 13:0 14:0 
-1 0:0.56134184 1:0.5515135 2:0.55632529 3:0.56942975 4:0.58778965 5:0.51151759 6:0.54485889 7:0 8:0 9:1 10:0 11:0 12:0 13:0 14:0 
-1 0:0.54349384 1:0.56134184 2:0.5515135 3:0.55632529 4:0.56942975 5:0.58778965 6:0.51151759 7:0 8:0 9:0 10:0 11:0 12:0 13:0 14:0 
1 0:0.48517217 1:0.50008532 2:0.50953827 3:0.5246903 4:0.54349384 5:0.56134184 6:0.5515135 7:0 8:0 9:0 10:0 11:1 12:0 13:0 14:0 
-1 0:0.55984029 1:0.5565983 2:0.5515135 3:0.48169129 4:0.51069856 5:0.54171928 6:0.53608846 7:0 8:0 9:0 10:0 11:1 12:0 13:0 14:0 
-1 0:0.56646077 1:0.57195509 2:0.55711019 3:0.48838003 4:0.52318875 5:0.55984029 6:0.55639354 7:0 8:0 9:0 10:0 11:1 12:0 13:0 14:0 
-1 0:0.55052384 1:0.5565983 2:0.55233253 3:0.56646077 4:0.57195509 5:0.55711019 6:0.48838003 7:1 8:1 9:0 10:0 11:0 12:0 13:0 14:0 
-1 0:0.49271406 1:0.55052384 2:0.5565983 3:0.55233253 4:0.56646077 5:0.57195509 6:0.55711019 7:1 8:0 9:0 10:0 11:0 12:0 13:0 14:1 
-1 0:0.46527659 1:0.49271406 2:0.55052384 3:0.5565983 4:0.55233253 5:0.56646077 6:0.57195509 7:1 8:0 9:0 10:0 11:0 12:0 13:1 14:0 
1 0:0.43422175 1:0.46527659 2:0.49271406 3:0.55052384 4:0.5565983 5:0.55233253 6:0.56646077 7:0 8:0 9:0 10:0 11:0 12:1 13:0 14:0 
1 0:0.53226632 1:0.43422175 2:0.46527659 3:0.49271406 4:0.55052384 5:0.5565983 6:0.55233253 7:0 8:0 9:0 10:0 11:1 12:0 13:0 14:0 
1 0:0.50506774 1:0.52929734 2:0.56229738 3:0.55431185 4:0.53226632 5:0.43422175 6:0.46527659 7:0 8:0 9:0 10:0 11:0 12:0 13:0 14:1 
-1 0:0.60829949 1:0.50506774 2:0.52929734 3:0.56229738 4:0.55431185 5:0.53226632 6:0.43422175 7:0 8:0 9:0 10:0 11:0 12:0 13:1 14:0 
1 0:0.55830461 1:0.56461796 2:0.48998396 3:0.52001502 4:0.56451558 5:0.56738218 6:0.5687131 7:0 8:0 9:0 10:0 11:0 12:1 13:0 14:0 
-1 0:0.5935911 1:0.59328396 2:0.58222708 3:0.55830461 4:0.56461796 5:0.48998396 6:0.52001502 7:0 8:1 9:1 10:0 11:0 12:0 13:0 14:0 
-1 0:0.56977101 1:0.56540286 2:0.56055694 3:0.56093233 4:0.49100775 5:0.52223322 6:0.5935911 7:0 8:0 9:0 10:1 11:0 12:0 13:0 14:0 
-1 0:0.57768829 1:0.56850834 2:0.48520629 3:0.51875235 4:0.56055694 5:0.56977101 6:0.56540286 7:0 8:0 9:0 10:0 11:0 12:1 13:0 14:0 
-1 0:0.51588575 1:0.55315155 2:0.5529468 3:0.5508651 4:0.57768829 5:0.56850834 6:0.48520629 7:0 8:1 9:0 10:0 11:0 12:0 13:0 14:0 
1 0:0.47684537 1:0.51588575 2:0.55315155 3:0.5529468 4:0.5508651 5:0.57768829 6:0.56850834 7:0 8:0 9:0 10:0 11:0 12:0 13:0 14:1 
1 0:0.58007713 1:0.58444528 2:0.56977101 3:0.47684537 4:0.51588575 5:0.55315155 6:0.5529468 7:0 8:0 9:0 10:0 11:1 12:0 13:0 14:0 
1 0:0.60341945 1:0.58007713 2:0.58444528 3:0.56977101 4:0.47684537 5:0.51588575 6:0.55315155 7:0 8:0 9:0 10:1 11:0 12:0 13:0 14:0 
-1 0:0.65307306 1:0.60341945 2:0.58007713 3:0.58444528 4:0.56977101 5:0.47684537 6:0.51588575 7:0 8:1 9:1 10:0 11:0 12:0 13:0 14:0 
-1 0:0.57267174 1:0.65307306 2:0.60341945 3:0.58007713 4:0.58444528 5:0.56977101 6:0.47684537 7:0 8:1 9:0 10:0 11:0 12:0 13:0 14:0 
1 0:0.52492919 1:0.57267174 2:0.65307306 3:0.60341945 4:0.58007713 5:0.58444528 6:0.56977101 7:0 8:0 9:0 10:0 11:0 12:0 13:0 14:1 
-1 0:0.56093233 1:0.59427362 2:0.64522404 3:0.65303894 4:0.66085384 5:0.66027369 6:0.66078559 7:0 8:0 9:0 10:0 11:0 12:0 13:0 14:1 
-0.6125753450021366 0:0.61085896 1:0.60178139 2:0.59987032 3:0.60225915 4:0.56093233 5:0.59427362 6:0.64522404 7:1 8:0 9:0 10:1 11:0 12:0 13:0 14:0 
1 0:0.47264785 1:0.49691158 2:0.55096748 3:0.61085896 4:0.60178139 5:0.59987032 6:0.60225915 7:0 8:0 9:0 10:0 11:0 12:0 13:0 14:1 
1 0:0.63048152 1:0.63222196 2:0.63205133 3:0.64931918 4:0.47264785 5:0.49691158 6:0.55096748 7:0 8:0 9:0 10:1 11:0 12:0 13:0 14:0 
1 0:0.67610825 1:0.63048152 2:0.63222196 3:0.63205133 4:0.64931918 5:0.47264785 6:0.49691158 7:0 8:1 9:1 10:0 11:0 12:0 13:0 14:0 
1 0:0.63604409 1:0.67610825 2:0.63048152 3:0.63222196 4:0.63205133 5:0.64931918 6:0.47264785 7:0 8:1 9:0 10:0 11:0 12:0 13:0 14:0 
1 0:0.619254 1:0.63604409 2:0.67610825 3:0.63048152 4:0.63222196 5:0.63205133 6:0.64931918 7:0 8:0 9:0 10:0 11:0 12:0 13:0 14:1 
1 0:0.82227076 1:0.619254 2:0.63604409 3:0.67610825 4:0.63048152 5:0.63222196 6:0.63205133 7:0 8:0 9:0 10:0 11:0 12:0 13:1 14:0 
1 0:0.82053032 1:0.82227076 2:0.619254 3:0.63604409 4:0.67610825 5:0.63048152 6:0.63222196 7:0 8:0 9:0 10:0 11:0 12:1 13:0 14:0 
1 0:0.83462444 1:0.82053032 2:0.82227076 3:0.619254 4:0.63604409 5:0.67610825 6:0.63048152 7:0 8:0 9:0 10:0 11:1 12:0 13:0 14:0 
1 0:0.85482715 1:0.83462444 2:0.82053032 3:0.82227076 4:0.619254 5:0.63604409 6:0.67610825 7:0 8:0 9:0 10:1 11:0 12:0 13:0 14:0 
-1 0:0.77486947 1:0.87837423 2:0.85482715 3:0.83462444 4:0.82053032 5:0.82227076 6:0.619254 7:0 8:1 9:0 10:0 11:0 12:0 13:0 14:0 
0.4005518661195499 0:0.71105348 1:0.77486947 2:0.87837423 3:0.85482715 4:0.83462444 5:0.82053032 6:0.82227076 7:0 8:0 9:0 10:0 11:0 12:0 13:0 14:1 
1 0:0.83264512 1:0.71105348 2:0.77486947 3:0.87837423 4:0.85482715 5:0.83462444 6:0.82053032 7:0 8:0 9:0 10:0 11:0 12:0 13:1 14:0 
-1 0:0.86284681 1:0.83264512 2:0.71105348 3:0.77486947 4:0.87837423 5:0.85482715 6:0.83462444 7:0 8:0 9:0 10:0 11:0 12:1 13:0 14:0 
1 0:0.8270143 1:0.86284681 2:0.83264512 3:0.71105348 4:0.77486947 5:0.87837423 6:0.85482715 7:0 8:0 9:0 10:0 11:1 12:0 13:0 14:0 
-1 0:0.84107429 1:0.84854793 2:0.8270143 3:0.86284681 4:0.83264512 5:0.71105348 6:0.77486947 7:0 8:1 9:1 10:0 11:0 12:0 13:0 14:0 
-1 0:0.69211344 1:0.84107429 2:0.84854793 3:0.8270143 4:0.86284681 5:0.83264512 6:0.71105348 7:0 8:1 9:0 10:0 11:0 12:0 13:0 14:0 
-1 0:0.6506501 1:0.69211344 2:0.84107429 3:0.84854793 4:0.8270143 5:0.86284681 6:0.83264512 7:0 8:0 9:0 10:0 11:0 12:0 13:0 14:1 
-1 0:0.72443095 1:0.70494489 2:0.6506501 3:0.69211344 4:0.84107429 5:0.84854793 6:0.8270143 7:0 8:0 9:0 10:0 11:0 12:1 13:0 14:0 
1 0:0.70296557 1:0.72443095 2:0.70494489 3:0.6506501 4:0.69211344 5:0.84107429 6:0.84854793 7:0 8:0 9:0 10:0 11:1 12:0 13:0 14:0 
1 0:0.76166263 1:0.70296557 2:0.72443095 3:0.70494489 4:0.6506501 5:0.69211344 6:0.84107429 7:0 8:0 9:0 10:1 11:0 12:0 13:0 14:0 
1 0:0.81575265 1:0.76166263 2:0.70296557 3:0.72443095 4:0.70494489 5:0.6506501 6:0.69211344 7:0 8:1 9:1 10:0 11:0 12:0 13:0 14:0 
1 0:0.76473399 1:0.81575265 2:0.76166263 3:0.70296557 4:0.72443095 5:0.70494489 6:0.6506501 7:0 8:1 9:0 10:0 11:0 12:0 13:0 14:0 
1 0:0.73395216 1:0.76473399 2:0.81575265 3:0.76166263 4:0.70296557 5:0.72443095 6:0.70494489 7:0 8:0 9:0 10:0 11:0 12:0 13:0 14:1 
1 0:0.81977954 1:0.82595639 2:0.83319114 3:0.83544347 4:0.73395216 5:0.76473399 6:0.81575265 7:0 8:0 9:0 10:1 11:0 12:0 13:0 14:0 
1 0:0.84428216 1:0.81977954 2:0.82595639 3:0.83319114 4:0.83544347 5:0.73395216 6:0.76473399 7:0 8:1 9:1 10:0 11:0 12:0 13:0 14:0 
1 0:0.7265809 1:0.77405044 2:0.84428216 3:0.81977954 4:0.82595639 5:0.83319114 6:0.83544347 7:0 8:0 9:0 10:0 11:0 12:0 13:0 14:1 
-1 0:0.83510221 1:0.84496468 2:0.7265809 3:0.77405044 4:0.84428216 5:0.81977954 6:0.82595639 7:0 8:0 9:0 10:0 11:0 12:1 13:0 14:0 
-1 0:0.8100877 1:0.83510221 2:0.84496468 3:0.7265809 4:0.77405044 5:0.84428216 6:0.81977954 7:0 8:0 9:0 10:0 11:1 12:0 13:0 14:0 
-1 0:0.7708767 1:0.8100877 2:0.83510221 3:0.84496468 4:0.7265809 5:0.77405044 6:0.84428216 7:0 8:0 9:0 10:1 11:0 12:0 13:0 14:0 
1 0:0.76104836 1:0.7708767 2:0.8100877 3:0.83510221 4:0.84496468 5:0.7265809 6:0.77405044 7:0 8:1 9:1 10:0 11:0 12:0 13:0 14:0 
-1 0:0.74640822 1:0.76104836 2:0.7708767 3:0.8100877 4:0.83510221 5:0.84496468 6:0.7265809 7:0 8:1 9:0 10:0 11:0 12:0 13:0 14:0 
1 0:0.68088592 1:0.74640822 2:0.76104836 3:0.7708767 4:0.8100877 5:0.83510221 6:0.84496468 7:0 8:0 9:0 10:0 11:0 12:0 13:0 14:1 
-1 0:0.80599256 1:0.68088592 2:0.74640822 3:0.76104836 4:0.7708767 5:0.8100877 6:0.83510221 7:0 8:0 9:0 10:0 11:0 12:0 13:1 14:0 
-1 0:0.77186636 1:0.80599256 2:0.68088592 3:0.74640822 4:0.76104836 5:0.7708767 6:0.8100877 7:0 8:0 9:0 10:0 11:0 12:1 13:0 14:0 
-1 0:0.7004061 1:0.77186636 2:0.80599256 3:0.68088592 4:0.74640822 5:0.76104836 6:0.7708767 7:0 8:0 9:0 10:0 11:1 12:0 13:0 14:0 
1 0:0.68730164 1:0.7004061 2:0.77186636 3:0.80599256 4:0.68088592 5:0.74640822 6:0.76104836 7:0 8:0 9:0 10:1 11:0 12:0 13:0 14:0 
1 0:0.79336587 1:0.68730164 2:0.7004061 3:0.77186636 4:0.80599256 5:0.68088592 6:0.74640822 7:0 8:1 9:1 10:0 11:0 12:0 13:0 14:0 
1 0:0.72965225 1:0.79336587 2:0.68730164 3:0.7004061 4:0.77186636 5:0.80599256 6:0.68088592 7:0 8:1 9:0 10:0 11:0 12:0 13:0 14:0 
1 0:0.71255503 1:0.72965225 2:0.79336587 3:0.68730164 4:0.7004061 5:0.77186636 6:0.80599256 7:0 8:0 9:0 10:0 11:0 12:0 13:0 14:1 
1 0:0.84749002 1:0.71255503 2:0.72965225 3:0.79336587 4:0.68730164 5:0.7004061 6:0.77186636 7:0 8:0 9:0 10:0 11:0 12:0 13:1 14:0 
1 0:0.87707743 1:0.84749002 2:0.71255503 3:0.72965225 4:0.79336587 5:0.68730164 6:0.7004061 7:0 8:0 9:0 10:0 11:0 12:1 13:0 14:0 
1 0:0.85568031 1:0.87895437 2:0.87707743 3:0.84749002 4:0.71255503 5:0.72965225 6:0.79336587 7:0 8:0 9:0 10:1 11:0 12:0 13:0 14:0 
1 0:0.86264205 1:0.85568031 2:0.87895437 3:0.87707743 4:0.84749002 5:0.71255503 6:0.72965225 7:0 8:1 9:1 10:0 11:0 12:0 13:0 14:0 
-1 0:0.74879705 1:0.79213732 2:0.86264205 3:0.85568031 4:0.87895437 5:0.87707743 6:0.84749002 7:0 8:0 9:0 10:0 11:0 12:0 13:0 14:1 
-1 0:0.83312289 1:0.74879705 2:0.79213732 3:0.86264205 4:0.85568031 5:0.87895437 6:0.87707743 7:0 8:0 9:0 10:0 11:0 12:0 13:1 14:0 
-1 0:0.82793571 1:0.83312289 2:0.74879705 3:0.79213732 4:0.86264205 5:0.85568031 6:0.87895437 7:0 8:0 9:0 10:0 11:0 12:1 13:0 14:0 
-1 0:0.74866055 1:0.82793571 2:0.83312289 3:0.74879705 4:0.79213732 5:0.86264205 6:0.85568031 7:0 8:0 9:0 10:0 11:1 12:0 13:0 14:0 
-1 0:0.73381565 1:0.74866055 2:0.82793571 3:0.83312289 4:0.74879705 5:0.79213732 6:0.86264205 7:0 8:0 9:0 10:1 11:0 12:0 13:0 14:0 
1 0:0.70030372 1:0.73381565 2:0.74866055 3:0.82793571 4:0.83312289 5:0.74879705 6:0.79213732 7:0 8:1 9:1 10:0 11:0 12:0 13:0 14:0 
-1 0:0.70125926 1:0.70030372 2:0.73381565 3:0.74866055 4:0.82793571 5:0.83312289 6:0.74879705 7:0 8:1 9:0 10:0 11:0 12:0 13:0 14:0 
1 0:0.72006279 1:0.62215473 2:0.70125926 3:0.70030372 4:0.73381565 5:0.74866055 6:0.82793571 7:0 8:0 9:0 10:0 11:0 12:0 13:1 14:0 
1 0:0.75125414 1:0.75637307 2:0.76080947 3:0.77387981 4:0.72006279 5:0.62215473 6:0.70125926 7:0 8:1 9:1 10:0 11:0 12:0 13:0 14:0 
-1 0:0.66648466 1:0.69439989 2:0.75125414 3:0.75637307 4:0.76080947 5:0.77387981 6:0.72006279 7:0 8:0 9:0 10:0 11:0 12:0 13:0 14:1 
-1 0:0.72869672 1:0.66648466 2:0.69439989 3:0.75125414 4:0.75637307 5:0.76080947 6:0.77387981 7:0 8:0 9:0 10:0 11:0 12:0 13:1 14:0 
-1 0:0.67781456 1:0.72869672 2:0.66648466 3:0.69439989 4:0.75125414 5:0.75637307 6:0.76080947 7:0 8:0 9:0 10:0 11:0 12:1 13:0 14:0 
0.3642848267989447 0:0.64102652 1:0.67781456 2:0.72869672 3:0.66648466 4:0.69439989 5:0.75125414 6:0.75637307 7:0 8:0 9:0 10:0 11:1 12:0 13:0 14:0 
1 0:0.66273078 1:0.64102652 2:0.67781456 3:0.72869672 4:0.66648466 5:0.69439989 6:0.75125414 7:0 8:0 9:0 10:1 11:0 12:0 13:0 14:0 
-1 0:0.69999659 1:0.66273078 2:0.64102652 3:0.67781456 4:0.72869672 5:0.66648466 6:0.69439989 7:0 8:1 9:1 10:0 11:0 12:0 13:0 14:0 
-1 0:0.58867693 1:0.61874211 2:0.69999659 3:0.66273078 4:0.64102652 5:0.67781456 6:0.72869672 7:0 8:0 9:0 10:0 11:0 12:0 13:0 14:1 
1 0:0.64802239 1:0.63099341 2:0.58867693 3:0.61874211 4:0.69999659 5:0.66273078 6:0.64102652 7:0 8:0 9:0 10:0 11:0 12:1 13:0 14:0 
-1 0:0.68392315 1:0.64802239 2:0.63099341 3:0.58867693 4:0.61874211 5:0.69999659 6:0.66273078 7:0 8:0 9:0 10:0 11:1 12:0 13:0 14:0 
-1 0:0.62539672 1:0.68392315 2:0.64802239 3:0.63099341 4:0.58867693 5:0.61874211 6:0.69999659 7:0 8:0 9:0 10:1 11:0 12:0 13:0 14:0 
-1 0:0.56332116 1:0.60147425 2:0.62539672 3:0.68392315 4:0.64802239 5:0.63099341 6:0.58867693 7:0 8:1 9:0 10:0 11:0 12:0 13:0 14:0 
-1 0:0.5210388 1:0.56332116 2:0.60147425 3:0.62539672 4:0.68392315 5:0.64802239 6:0.63099341 7:0 8:0 9:0 10:0 11:0 12:0 13:0 14:1 
1 0:0.59557042 1:0.58826741 2:0.57516295 3:0.5210388 4:0.56332116 5:0.60147425 6:0.62539672 7:0 8:0 9:0 10:0 11:1 12:0 13:0 14:0 
-1 0:0.61314541 1:0.61447633 2:0.59557042 3:0.58826741 4:0.57516295 5:0.5210388 6:0.56332116 7:0 8:1 9:1 10:0 11:0 12:0 13:0 14:0 
-1 0:0.54694059 1:0.61314541 2:0.61447633 3:0.59557042 4:0.58826741 5:0.57516295 6:0.5210388 7:0 8:1 9:0 10:0 11:0 12:0 13:0 14:0 
1 0:0.50885575 1:0.54694059 2:0.61314541 3:0.61447633 4:0.59557042 5:0.58826741 6:0.57516295 7:0 8:0 9:0 10:0 11:0 12:0 13:0 14:1 
-1 0:0.61266764 1:0.6113026 2:0.604921 3:0.59959731 4:0.50885575 5:0.54694059 6:0.61314541 7:0 8:0 9:0 10:1 11:0 12:0 13:0 14:0 
-1 0:0.59987032 1:0.61266764 2:0.6113026 3:0.604921 4:0.59959731 5:0.50885575 6:0.54694059 7:0 8:0 9:1 10:0 11:0 12:0 13:0 14:0 
-1 0:0.54666758 1:0.59987032 2:0.61266764 3:0.6113026 4:0.604921 5:0.59959731 6:0.50885575 7:1 8:1 9:0 10:0 11:0 12:0 13:0 14:0 
-1 0:0.42838617 1:0.54666758 2:0.59987032 3:0.61266764 4:0.6113026 5:0.604921 6:0.59959731 7:1 8:0 9:0 10:0 11:0 12:0 13:0 14:1 
1 0:0.41814831 1:0.40855885 2:0.4013241 3:0.42838617 4:0.54666758 5:0.59987032 6:0.61266764 7:1 8:0 9:0 10:0 11:1 12:0 13:0 14:0 
1 0:0.47261373 1:0.46101082 2:0.41814831 3:0.40855885 4:0.4013241 5:0.42838617 6:0.54666758 7:1 8:1 9:1 10:0 11:0 12:0 13:0 14:0 
1 0:0.49636556 1:0.47261373 2:0.46101082 3:0.41814831 4:0.40855885 5:0.4013241 6:0.42838617 7:1 8:1 9:0 10:0 11:0 12:0 13:0 14:0 
-1 0:0.56779169 1:0.5685766 2:0.55891888 3:0.50691056 4:0.49636556 5:0.47261373 6:0.46101082 7:0 8:0 9:0 10:0 11:1 12:0 13:0 14:0 
-1 0:0.56608538 1:0.56277514 2:0.49326008 3:0.51902536 4:0.55980616 5:0.55554039 6:0.56779169 7:0 8:0 9:0 10:0 11:0 12:1 13:0 14:0 
-1 0:0.54509777 1:0.56608538 2:0.56277514 3:0.49326008 4:0.51902536 5:0.55980616 6:0.55554039 7:0 8:0 9:0 10:0 11:1 12:0 13:0 14:0 
-1 0:0.55854349 1:0.48667372 2:0.50223527 3:0.54649695 4:0.54165103 5:0.54509777 6:0.56608538 7:0 8:0 9:0 10:0 11:0 12:0 13:1 14:0 
-1 0:0.55728082 1:0.54595093 2:0.48506979 3:0.51533973 4:0.55765621 5:0.55332219 6:0.54707709 7:0 8:0 9:0 10:0 11:0 12:1 13:0 14:0 
-1 0:0.54035423 1:0.55728082 2:0.54595093 3:0.48506979 4:0.51533973 5:0.55765621 6:0.55332219 7:0 8:0 9:0 10:0 11:1 12:0 13:0 14:0 
1 0:0.57809781 1:0.58519606 2:0.57096543 3:0.56717742 4:0.49837901 5:0.53096953 6:0.57693751 7:0 8:0 9:0 10:1 11:0 12:0 13:0 14:0 
1 0:0.50868512 1:0.54438112 2:0.59717435 3:0.57809781 4:0.58519606 5:0.57096543 6:0.56717742 7:0 8:0 9:0 10:0 11:0 12:0 13:0 14:1 
1 0:0.61444221 1:0.53161792 2:0.55048971 3:0.61106371 4:0.59809576 5:0.59782275 6:0.60823124 7:0 8:0 9:0 10:0 11:0 12:0 13:1 14:0 
1 0:0.62816094 1:0.63577108 2:0.61444221 3:0.53161792 4:0.55048971 5:0.61106371 6:0.59809576 7:0 8:0 9:0 10:0 11:1 12:0 13:0 14:0 
0.1841411926131501 0:0.62921885 1:0.64474627 2:0.62816094 3:0.63577108 4:0.61444221 5:0.53161792 6:0.55048971 7:0 8:1 9:1 10:0 11:0 12:0 13:0 14:0 
1 0:0.58372863 1:0.62921885 2:0.64474627 3:0.62816094 4:0.63577108 5:0.61444221 6:0.53161792 7:0 8:1 9:0 10:0 11:0 12:0 13:0 14:0 
1 0:0.59021261 1:0.58372863 2:0.62921885 3:0.64474627 4:0.62816094 5:0.63577108 6:0.61444221 7:0 8:0 9:0 10:0 11:0 12:0 13:0 14:1 
-1 0:0.66621165 1:0.66416408 2:0.66372044 3:0.67774631 4:0.59021261 5:0.58372863 6:0.62921885 7:0 8:0 9:0 10:1 11:0 12:0 13:0 14:0 
1 0:0.56052281 1:0.57342252 2:0.63641948 3:0.66621165 4:0.66416408 5:0.66372044 6:0.67774631 7:0 8:0 9:0 10:0 11:0 12:0 13:0 14:1 
1 0:0.65962529 1:0.56052281 2:0.57342252 3:0.63641948 4:0.66621165 5:0.66416408 6:0.66372044 7:0 8:0 9:0 10:0 11:0 12:0 13:1 14:0 
1 0:0.68344538 1:0.68801829 2:0.69760775 3:0.6931031 4:0.65962529 5:0.56052281 6:0.57342252 7:0 8:1 9:1 10:0 11:0 12:0 13:0 14:0 
1 0:0.63556632 1:0.68344538 2:0.68801829 3:0.69760775 4:0.6931031 5:0.65962529 6:0.56052281 7:0 8:1 9:0 10:0 11:0 12:0 13:0 14:0 
1 0:0.63502031 1:0.63556632 2:0.68344538 3:0.68801829 4:0.69760775 5:0.6931031 6:0.65962529 7:0 8:0 9:0 10:0 11:0 12:0 13:0 14:1 
-1 0:0.73364502 1:0.63502031 2:0.63556632 3:0.68344538 4:0.68801829 5:0.69760775 6:0.6931031 7:0 8:0 9:0 10:0 11:0 12:0 13:1 14:0 
1 0:0.70992731 1:0.73364502 2:0.63502031 3:0.63556632 4:0.68344538 5:0.68801829 6:0.69760775 7:0 8:0 9:0 10:0 11:0 12:1 13:0 14:0 
1 0:0.6996212 1:0.71658192 2:0.73299662 3:0.70992731 4:0.73364502 5:0.63502031 6:0.63556632 7:0 8:1 9:1 10:0 11:0 12:0 13:0 14:0 
1 0:0.66105859 1:0.6996212 2:0.71658192 3:0.73299662 4:0.70992731 5:0.73364502 6:0.63502031 7:0 8:1 9:0 10:0 11:0 12:0 13:0 14:0 
-1 0:0.66139986 1:0.66105859 2:0.6996212 3:0.71658192 4:0.73299662 5:0.70992731 6:0.73364502 7:0 8:0 9:0 10:0 11:0 12:0 13:0 14:1 
-1 0:0.6967546 1:0.66139986 2:0.66105859 3:0.6996212 4:0.71658192 5:0.73299662 6:0.70992731 7:1 8:0 9:0 10:0 11:0 12:0 13:1 14:0 
1 0:0.56966863 1:0.6967546 2:0.66139986 3:0.66105859 4:0.6996212 5:0.71658192 6:0.73299662 7:1 8:0 9:0 10:0 11:0 12:1 13:0 14:0 
1 0:0.61184862 1:0.56966863 2:0.6967546 3:0.66139986 4:0.66105859 5:0.6996212 6:0.71658192 7:1 8:0 9:0 10:0 11:1 12:0 13:0 14:0 
1 0:0.67706378 1:0.61184862 2:0.56966863 3:0.6967546 4:0.66139986 5:0.66105859 6:0.6996212 7:0 8:0 9:0 10:1 11:0 12:0 13:0 14:0 
1 0:0.76415384 1:0.67706378 2:0.61184862 3:0.56966863 4:0.6967546 5:0.66139986 6:0.66105859 7:0 8:0 9:1 10:0 11:0 12:0 13:0 14:0 
-1 0:0.77343617 1:0.76415384 2:0.67706378 3:0.61184862 4:0.56966863 5:0.6967546 6:0.66139986 7:0 8:0 9:0 10:0 11:0 12:0 13:0 14:0 
-1 0:0.73797905 1:0.77343617 2:0.76415384 3:0.67706378 4:0.61184862 5:0.56966863 6:0.6967546 7:0 8:0 9:0 10:0 11:0 12:0 13:0 14:1 
1 0:0.68078354 1:0.73173395 2:0.74132341 3:0.75391598 4:0.75923967 5:0.78159233 6:0.73797905 7:0 8:1 9:0 10:0 11:0 12:0 13:0 14:0 
-1 0:0.67214961 1:0.68078354 2:0.73173395 3:0.74132341 4:0.75391598 5:0.75923967 6:0.78159233 7:0 8:0 9:0 10:0 11:0 12:0 13:0 14:1 
1 0:0.70634406 1:0.71064396 2:0.67214961 3:0.68078354 4:0.73173395 5:0.74132341 6:0.75391598 7:0 8:0 9:0 10:0 11:0 12:1 13:0 14:0 
1 0:0.73657987 1:0.70634406 2:0.71064396 3:0.67214961 4:0.68078354 5:0.73173395 6:0.74132341 7:0 8:0 9:0 10:0 11:1 12:0 13:0 14:0 
1 0:0.74719312 1:0.73657987 2:0.70634406 3:0.71064396 4:0.67214961 5:0.68078354 6:0.73173395 7:0 8:0 9:0 10:1 11:0 12:0 13:0 14:0 
-1 0:0.7522438 1:0.74719312 2:0.73657987 3:0.70634406 4:0.71064396 5:0.67214961 6:0.68078354 7:0 8:1 9:1 10:0 11:0 12:0 13:0 14:0 
-1 0:0.63870593 1:0.66174112 2:0.7522438 3:0.74719312 4:0.73657987 5:0.70634406 6:0.71064396 7:0 8:0 9:0 10:0 11:0 12:0 13:0 14:1 
1 0:0.68733577 1:0.63870593 2:0.66174112 3:0.7522438 4:0.74719312 5:0.73657987 6:0.70634406 7:0 8:0 9:0 10:0 11:0 12:0 13:1 14:0 
-1 0:0.72811658 1:0.72381667 2:0.68733577 3:0.63870593 4:0.66174112 5:0.7522438 6:0.74719312 7:0 8:0 9:0 10:0 11:1 12:0 13:0 14:0 
-1 0:0.67945262 1:0.60311231 2:0.62263249 3:0.69934819 4:0.69286421 5:0.72811658 6:0.72381667 7:0 8:0 9:0 10:0 11:0 12:0 13:1 14:0 
-1 0:0.63928608 1:0.67945262 2:0.60311231 3:0.62263249 4:0.69934819 5:0.69286421 6:0.72811658 7:0 8:0 9:0 10:0 11:0 12:1 13:0 14:0 
-1 0:0.60867488 1:0.63928608 2:0.67945262 3:0.60311231 4:0.62263249 5:0.69934819 6:0.69286421 7:0 8:0 9:0 10:0 11:1 12:0 13:0 14:0 
-1 0:0.58871105 1:0.60867488 2:0.63928608 3:0.67945262 4:0.60311231 5:0.62263249 6:0.69934819 7:0 8:0 9:0 10:1 11:0 12:0 13:0 14:0 
-1 0:0.53878442 1:0.56530048 2:0.58871105 3:0.60867488 4:0.63928608 5:0.67945262 6:0.60311231 7:0 8:1 9:0 10:0 11:0 12:0 13:0 14:0 
-1 0:0.50646691 1:0.53878442 2:0.56530048 3:0.58871105 4:0.60867488 5:0.63928608 6:0.67945262 7:0 8:0 9:0 10:0 11:0 12:0 13:0 14:1 
-1 0:0.56257039 1:0.56994164 2:0.56581237 3:0.50646691 4:0.53878442 5:0.56530048 6:0.58871105 7:0 8:0 9:0 10:0 11:1 12:0 13:0 14:0 
-1 0:0.54837389 1:0.56257039 2:0.56994164 3:0.56581237 4:0.50646691 5:0.53878442 6:0.56530048 7:0 8:0 9:0 10:1 11:0 12:0 13:0 14:0 
1 0:0.51967375 1:0.54837389 2:0.56257039 3:0.56994164 4:0.56581237 5:0.50646691 6:0.53878442 7:1 8:1 9:1 10:0 11:0 12:0 13:0 14:0 
1 0:0.46326315 1:0.46012354 2:0.46930348 3:0.46575436 4:0.50745657 5:0.51967375 6:0.54837389 7:1 8:0 9:0 10:0 11:1 12:0 13:0 14:0 
1 0:0.47397877 1:0.47745965 2:0.46326315 3:0.46012354 4:0.46930348 5:0.46575436 6:0.50745657 7:0 8:0 9:1 10:0 11:0 12:0 13:0 14:0 
1 0:0.51144934 1:0.47397877 2:0.47745965 3:0.46326315 4:0.46012354 5:0.46930348 6:0.46575436 7:0 8:0 9:0 10:0 11:0 12:0 13:0 14:0 
1 0:0.53711224 1:0.51144934 2:0.47397877 3:0.47745965 4:0.46326315 5:0.46012354 6:0.46930348 7:0 8:0 9:0 10:0 11:0 12:0 13:0 14:1 
1 0:0.6036242 1:0.53711224 2:0.51144934 3:0.47397877 4:0.47745965 5:0.46326315 6:0.46012354 7:0 8:0 9:0 10:0 11:0 12:0 13:1 14:0 
-1 0:0.64518991 1:0.66252602 2:0.6036242 3:0.53711224 4:0.51144934 5:0.47397877 6:0.47745965 7:0 8:0 9:0 10:0 11:1 12:0 13:0 14:0 
-1 0:0.54141214 1:0.5608982 2:0.63092516 3:0.62423643 4:0.64518991 5:0.66252602 6:0.6036242 7:0 8:0 9:0 10:0 11:0 12:0 13:0 14:1 
-1 0:0.61034706 1:0.61321366 2:0.60239566 3:0.54141214 4:0.5608982 5:0.63092516 6:0.62423643 7:0 8:0 9:0 10:0 11:1 12:0 13:0 14:0 
1 0:0.58673173 1:0.61034706 2:0.61321366 3:0.60239566 4:0.54141214 5:0.5608982 6:0.63092516 7:0 8:0 9:0 10:1 11:0 12:0 13:0 14:0 
-1 0:0.61457871 1:0.55134287 2:0.57618674 3:0.64396137 4:0.58673173 5:0.61034706 6:0.61321366 7:0 8:0 9:0 10:0 11:0 12:0 13:1 14:0 
-1 0:0.59908542 1:0.61457871 2:0.55134287 3:0.57618674 4:0.64396137 5:0.58673173 6:0.61034706 7:0 8:0 9:0 10:0 11:0 12:1 13:0 14:0 
-1 0:0.57727878 1:0.59908542 2:0.61457871 3:0.55134287 4:0.57618674 5:0.64396137 6:0.58673173 7:0 8:0 9:0 10:0 11:1 12:0 13:0 14:0 
-1 0:0.56707504 1:0.57727878 2:0.59908542 3:0.61457871 4:0.55134287 5:0.57618674 6:0.64396137 7:0 8:0 9:0 10:1 11:0 12:0 13:0 14:0 
1 0:0.5117906 1:0.56072757 2:0.56707504 3:0.57727878 4:0.59908542 5:0.61457871 6:0.55134287 7:0 8:1 9:0 10:0 11:0 12:0 13:0 14:0 
1 0:0.51192711 1:0.5117906 2:0.56072757 3:0.56707504 4:0.57727878 5:0.59908542 6:0.61457871 7:0 8:0 9:0 10:0 11:0 12:0 13:0 14:1 
-1 0:0.62167696 1:0.51192711 2:0.5117906 3:0.56072757 4:0.56707504 5:0.57727878 6:0.59908542 7:0 8:0 9:0 10:0 11:0 12:0 13:1 14:0 
1 0:0.58198819 1:0.62167696 2:0.51192711 3:0.5117906 4:0.56072757 5:0.56707504 6:0.57727878 7:0 8:0 9:0 10:0 11:0 12:1 13:0 14:0 
1 0:0.62529434 1:0.58198819 2:0.62167696 3:0.51192711 4:0.5117906 5:0.56072757 6:0.56707504 7:0 8:0 9:0 10:0 11:1 12:0 13:0 14:0 
-1 0:0.65058185 1:0.62529434 2:0.58198819 3:0.62167696 4:0.51192711 5:0.5117906 6:0.56072757 7:0 8:0 9:0 10:1 11:0 12:0 13:0 14:0 
-1 0:0.61655803 1:0.65058185 2:0.62529434 3:0.58198819 4:0.62167696 5:0.51192711 6:0.5117906 7:0 8:1 9:1 10:0 11:0 12:0 13:0 14:0 
-1 0:0.57635737 1:0.51052793 2:0.53967171 3:0.61655803 4:0.65058185 5:0.62529434 6:0.58198819 7:0 8:0 9:0 10:0 11:0 12:0 13:1 14:0 
1 0:0.55854349 1:0.57635737 2:0.51052793 3:0.53967171 4:0.61655803 5:0.65058185 6:0.62529434 7:0 8:0 9:0 10:0 11:0 12:1 13:0 14:0 
-1 0:0.60396546 1:0.59836877 2:0.55854349 3:0.57635737 4:0.51052793 5:0.53967171 6:0.61655803 7:0 8:0 9:0 10:1 11:0 12:0 13:0 14:0 
1 0:0.58471829 1:0.60396546 2:0.59836877 3:0.55854349 4:0.57635737 5:0.51052793 6:0.53967171 7:0 8:1 9:1 10:0 11:0 12:0 13:0 14:0 
1 0:0.53400676 1:0.55557451 2:0.58471829 3:0.60396546 4:0.59836877 5:0.55854349 6:0.57635737 7:0 8:0 9:0 10:0 11:0 12:0 13:0 14:1 
1 0:0.61744531 1:0.53400676 2:0.55557451 3:0.58471829 4:0.60396546 5:0.59836877 6:0.55854349 7:0 8:0 9:0 10:0 11:0 12:0 13:1 14:0 
-1 0:0.6376139 1:0.61744531 2:0.53400676 3:0.55557451 4:0.58471829 5:0.60396546 6:0.59836877 7:0 8:0 9:0 10:0 11:0 12:1 13:0 14:0 
-1 0:0.61498823 1:0.6376139 2:0.61744531 3:0.53400676 4:0.55557451 5:0.58471829 6:0.60396546 7:0 8:0 9:0 10:0 11:1 12:0 13:0 14:0 
1 0:0.58679999 1:0.61498823 2:0.6376139 3:0.61744531 4:0.53400676 5:0.55557451 6:0.58471829 7:0 8:0 9:0 10:1 11:0 12:0 13:0 14:0 
-1 0:0.52919496 1:0.54810088 2:0.60771935 3:0.58679999 4:0.61498823 5:0.6376139 6:0.61744531 7:0 8:0 9:0 10:0 11:0 12:0 13:0 14:1 
-1 0:0.58953008 1:0.52919496 2:0.54810088 3:0.60771935 4:0.58679999 5:0.61498823 6:0.6376139 7:0 8:0 9:0 10:0 11:0 12:0 13:1 14:0 
-1 0:0.57727878 1:0.58953008 2:0.52919496 3:0.54810088 4:0.60771935 5:0.58679999 6:0.61498823 7:0 8:0 9:0 10:0 11:0 12:1 13:0 14:0 
-1 0:0.56414019 1:0.57727878 2:0.58953008 3:0.52919496 4:0.54810088 5:0.60771935 6:0.58679999 7:1 8:0 9:0 10:0 11:1 12:0 13:0 14:0 
1 0:0.46319489 1:0.56414019 2:0.57727878 3:0.58953008 4:0.52919496 5:0.54810088 6:0.60771935 7:1 8:0 9:0 10:1 11:0 12:0 13:0 14:0 
1 0:0.49687745 1:0.46319489 2:0.56414019 3:0.57727878 4:0.58953008 5:0.52919496 6:0.54810088 7:1 8:1 9:1 10:0 11:0 12:0 13:0 14:0 
1 0:0.52868307 1:0.49687745 2:0.46319489 3:0.56414019 4:0.57727878 5:0.58953008 6:0.52919496 7:0 8:0 9:0 10:0 11:0 12:0 13:0 14:0 
-1 0:0.56366242 1:0.52868307 2:0.49687745 3:0.46319489 4:0.56414019 5:0.57727878 6:0.58953008 7:0 8:0 9:0 10:0 11:0 12:0 13:0 14:1 
-1 0:0.5778248 1:0.56366242 2:0.52868307 3:0.49687745 4:0.46319489 5:0.56414019 6:0.57727878 7:0 8:0 9:0 10:0 11:0 12:0 13:1 14:0 
1 0:0.56533461 1:0.56082995 2:0.55960141 3:0.5645497 4:0.55847524 5:0.49834488 6:0.52349589 7:0 8:1 9:1 10:0 11:0 12:0 13:0 14:0 
-1 0:0.51441832 1:0.53741938 2:0.56533461 3:0.56082995 4:0.55960141 5:0.5645497 6:0.55847524 7:0 8:0 9:0 10:0 11:0 12:0 13:0 14:1 
1 0:0.56202437 1:0.51441832 2:0.53741938 3:0.56533461 4:0.56082995 5:0.55960141 6:0.5645497 7:0 8:0 9:0 10:0 11:0 12:0 13:1 14:0 
-1 0:0.58366038 1:0.56202437 2:0.51441832 3:0.53741938 4:0.56533461 5:0.56082995 6:0.55960141 7:0 8:0 9:0 10:0 11:0 12:1 13:0 14:0 
-1 0:0.55072859 1:0.56171723 2:0.56700679 3:0.56659728 4:0.58366038 5:0.56202437 6:0.51441832 7:0 8:0 9:0 10:0 11:0 12:0 13:0 14:0 
1 0:0.45319592 1:0.48233969 2:0.51486196 3:0.54137802 4:0.55072859 5:0.56171723 6:0.56700679 7:0 8:0 9:0 10:0 11:1 12:0 13:0 14:0 
-1 0:0.54410811 1:0.55509675 2:0.45319592 3:0.48233969 4:0.51486196 5:0.54137802 6:0.55072859 7:0 8:1 9:1 10:0 11:0 12:0 13:0 14:0 
1 0:0.47725489 1:0.49728697 2:0.54410811 3:0.55509675 4:0.45319592 5:0.48233969 6:0.51486196 7:0 8:0 9:0 10:0 11:0 12:0 13:0 14:1 
1 0:0.4975941 1:0.52701089 2:0.57304713 3:0.57659625 4:0.56123946 5:0.56277514 6:0.55840699 7:0 8:0 9:0 10:0 11:0 12:0 13:0 14:1 
-1 0:0.59720848 1:0.60133775 2:0.59925605 3:0.4975941 4:0.52701089 5:0.57304713 6:0.57659625 7:0 8:0 9:0 10:0 11:1 12:0 13:0 14:0 
-1 0:0.5801795 1:0.59720848 2:0.60133775 3:0.59925605 4:0.4975941 5:0.52701089 6:0.57304713 7:0 8:0 9:0 10:1 11:0 12:0 13:0 14:0 
-1 0:0.57198922 1:0.5801795 2:0.59720848 3:0.60133775 4:0.59925605 5:0.4975941 6:0.52701089 7:0 8:1 9:1 10:0 11:0 12:0 13:0 14:0 
1 0:0.49343071 1:0.50929939 2:0.57198922 3:0.5801795 4:0.59720848 5:0.60133775 6:0.59925605 7:0 8:0 9:0 10:0 11:0 12:0 13:0 14:1 
1 0:0.60799236 1:0.5950244 2:0.49343071 3:0.50929939 4:0.57198922 5:0.5801795 6:0.59720848 7:0 8:0 9:0 10:0 11:0 12:1 13:0 14:0 
-1 0:0.63082278 1:0.60799236 2:0.5950244 3:0.49343071 4:0.50929939 5:0.57198922 6:0.5801795 7:0 8:0 9:0 10:0 11:1 12:0 13:0 14:0 
-1 0:0.55025083 1:0.61406682 2:0.60236153 3:0.63082278 4:0.60799236 5:0.5950244 6:0.49343071 7:0 8:1 9:0 10:0 11:0 12:0 13:0 14:0 
1 0:0.50121148 1:0.55025083 2:0.61406682 3:0.60236153 4:0.63082278 5:0.60799236 6:0.5950244 7:0 8:0 9:0 10:0 11:0 12:0 13:0 14:1 
1 0:0.62362215 1:0.61253114 2:0.50121148 3:0.55025083 4:0.61406682 5:0.60236153 6:0.63082278 7:0 8:0 9:0 10:0 11:0 12:1 13:0 14:0 
-1 0:0.65133263 1:0.62362215 2:0.61253114 3:0.50121148 4:0.55025083 5:0.61406682 6:0.60236153 7:0 8:0 9:0 10:0 11:1 12:0 13:0 14:0 
-1 0:0.61877623 1:0.65133263 2:0.62362215 3:0.61253114 4:0.50121148 5:0.55025083 6:0.61406682 7:0 8:0 9:0 10:1 11:0 12:0 13:0 14:0 
-1 0:0.60167901 1:0.61877623 2:0.65133263 3:0.62362215 4:0.61253114 5:0.50121148 6:0.55025083 7:0 8:1 9:1 10:0 11:0 12:0 13:0 14:0 
-1 0:0.53288059 1:0.60167901 2:0.61877623 3:0.65133263 4:0.62362215 5:0.61253114 6:0.50121148 7:0 8:1 9:0 10:0 11:0 12:0 13:0 14:0 
1 0:0.48745862 1:0.53288059 2:0.60167901 3:0.61877623 4:0.65133263 5:0.62362215 6:0.61253114 7:0 8:0 9:0 10:0 11:0 12:0 13:0 14:1 
-1 0:0.62130157 1:0.48745862 2:0.53288059 3:0.60167901 4:0.61877623 5:0.65133263 6:0.62362215 7:0 8:0 9:0 10:0 11:0 12:0 13:1 14:0 
-1 0:0.61154148 1:0.61502235 2:0.60386309 3:0.5958093 4:0.59898304 5:0.62130157 6:0.48745862 7:0 8:0 9:0 10:0 11:0 12:0 13:0 14:0 
-1 0:0.59318159 1:0.61154148 2:0.61502235 3:0.60386309 4:0.5958093 5:0.59898304 6:0.62130157 7:1 8:0 9:0 10:0 11:0 12:0 13:0 14:1 
-1 0:0.50039245 1:0.54154865 2:0.59318159 3:0.61154148 4:0.61502235 5:0.60386309 6:0.5958093 7:1 8:0 9:0 10:0 11:0 12:1 13:0 14:0 
1 0:0.45288878 1:0.50039245 2:0.54154865 3:0.59318159 4:0.61154148 5:0.61502235 6:0.60386309 7:0 8:0 9:0 10:0 11:1 12:0 13:0 14:0 
1 0:0.55233253 1:0.58127154 2:0.59379586 3:0.45288878 4:0.50039245 5:0.54154865 6:0.59318159 7:0 8:1 9:0 10:0 11:0 12:0 13:0 14:0 
1 0:0.54649695 1:0.55233253 2:0.58127154 3:0.59379586 4:0.45288878 5:0.50039245 6:0.54154865 7:0 8:0 9:0 10:0 11:0 12:0 13:0 14:1 
1 0:0.74029963 1:0.54649695 2:0.55233253 3:0.58127154 4:0.59379586 5:0.45288878 6:0.50039245 7:0 8:0 9:0 10:0 11:0 12:0 13:1 14:0 
1 0:0.78377641 1:0.74029963 2:0.54649695 3:0.55233253 4:0.58127154 5:0.59379586 6:0.45288878 7:0 8:0 9:0 10:0 11:0 12:1 13:0 14:0 
-1 0:0.81667406 1:0.78377641 2:0.74029963 3:0.54649695 4:0.55233253 5:0.58127154 6:0.59379586 7:0 8:0 9:0 10:0 11:1 12:0 13:0 14:0 
-1 0:0.72006279 1:0.73791079 2:0.81667406 3:0.78377641 4:0.74029963 5:0.54649695 6:0.55233253 7:0 8:1 9:1 10:0 11:0 12:0 13:0 14:0 
1 0:0.61894687 1:0.72006279 2:0.73791079 3:0.81667406 4:0.78377641 5:0.74029963 6:0.54649695 7:0 8:1 9:0 10:0 11:0 12:0 13:0 14:0 
-1 0:0.70255605 1:0.70293144 2:0.61952701 3:0.61894687 4:0.72006279 5:0.73791079 6:0.81667406 7:0 8:0 9:0 10:0 11:0 12:1 13:0 14:0 
-1 0:0.69163567 1:0.70255605 2:0.70293144 3:0.61952701 4:0.61894687 5:0.72006279 6:0.73791079 7:0 8:0 9:0 10:0 11:1 12:0 13:0 14:0 
-1 0:0.6597618 1:0.66542675 2:0.69163567 3:0.70255605 4:0.70293144 5:0.61952701 6:0.61894687 7:0 8:1 9:1 10:0 11:0 12:0 13:0 14:0 
1 0:0.55915777 1:0.6597618 2:0.66542675 3:0.69163567 4:0.70255605 5:0.70293144 6:0.61952701 7:0 8:1 9:0 10:0 11:0 12:0 13:0 14:0 
1 0:0.60208852 1:0.55915777 2:0.6597618 3:0.66542675 4:0.69163567 5:0.70255605 6:0.70293144 7:0 8:0 9:0 10:0 11:0 12:0 13:0 14:1 
1 0:0.7716616 1:0.60208852 2:0.55915777 3:0.6597618 4:0.66542675 5:0.69163567 6:0.70255605 7:0 8:0 9:0 10:0 11:0 12:0 13:1 14:0 
1 0:0.8378323 1:0.7716616 2:0.60208852 3:0.55915777 4:0.6597618 5:0.66542675 6:0.69163567 7:0 8:0 9:0 10:0 11:0 12:1 13:0 14:0 
1 0:0.84749002 1:0.8378323 2:0.7716616 3:0.60208852 4:0.55915777 5:0.6597618 6:0.66542675 7:0 8:0 9:0 10:0 11:1 12:0 13:0 14:0 
-1 0:0.86301744 1:0.8819916 2:0.84749002 3:0.8378323 4:0.7716616 5:0.60208852 6:0.55915777 7:0 8:1 9:1 10:0 11:0 12:0 13:0 14:0 
1 0:0.63908132 1:0.86301744 2:0.8819916 3:0.84749002 4:0.8378323 5:0.7716616 6:0.60208852 7:0 8:1 9:0 10:0 11:0 12:0 13:0 14:0 
1 0:0.64232331 1:0.63908132 2:0.86301744 3:0.8819916 4:0.84749002 5:0.8378323 6:0.7716616 7:0 8:0 9:0 10:0 11:0 12:0 13:0 14:1 
1 0:0.87844248 1:0.64232331 2:0.63908132 3:0.86301744 4:0.8819916 5:0.84749002 6:0.8378323 7:0 8:0 9:0 10:0 11:0 12:0 13:1 14:0 
1 0:0.90366174 1:0.87844248 2:0.64232331 3:0.63908132 4:0.86301744 5:0.8819916 6:0.84749002 7:0 8:0 9:0 10:0 11:0 12:1 13:0 14:0 
1 0:0.91871139 1:0.90366174 2:0.87844248 3:0.64232331 4:0.63908132 5:0.86301744 6:0.8819916 7:0 8:0 9:0 10:0 11:1 12:0 13:0 14:0 
-1 0:0.93266901 1:0.91871139 2:0.90366174 3:0.87844248 4:0.64232331 5:0.63908132 6:0.86301744 7:0 8:0 9:0 10:1 11:0 12:0 13:0 14:0 
-1 0:0.86649831 1:0.93266901 2:0.91871139 3:0.90366174 4:0.87844248 5:0.64232331 6:0.63908132 7:0 8:1 9:1 10:0 11:0 12:0 13:0 14:0 
1 0:0.67006791 1:0.86649831 2:0.93266901 3:0.91871139 4:0.90366174 5:0.87844248 6:0.64232331 7:0 8:1 9:0 10:0 11:0 12:0 13:0 14:0 
1 0:0.67457257 1:0.67006791 2:0.86649831 3:0.93266901 4:0.91871139 5:0.90366174 6:0.87844248 7:0 8:0 9:0 10:0 11:0 12:0 13:0 14:1 
0.7848384874683523 0:0.88322015 1:0.67457257 2:0.67006791 3:0.86649831 4:0.93266901 5:0.91871139 6:0.90366174 7:0 8:0 9:0 10:0 11:0 12:0 13:1 14:0 
1 0:0.89147869 1:0.89451592 2:0.88322015 3:0.67457257 4:0.67006791 5:0.86649831 6:0.93266901 7:0 8:0 9:0 10:0 11:1 12:0 13:0 14:0 
-1 0:0.89775791 1:0.90560693 2:0.89147869 3:0.89451592 4:0.88322015 5:0.67457257 6:0.67006791 7:0 8:1 9:1 10:0 11:0 12:0 13:0 14:0 
-1 0:0.77459646 1:0.89775791 2:0.90560693 3:0.89147869 4:0.89451592 5:0.88322015 6:0.67457257 7:0 8:1 9:0 10:0 11:0 12:0 13:0 14:0 
1 0:0.71405658 1:0.77459646 2:0.89775791 3:0.90560693 4:0.89147869 5:0.89451592 6:0.88322015 7:0 8:0 9:0 10:0 11:0 12:0 13:0 14:1 
1 0:0.87502986 1:0.71405658 2:0.77459646 3:0.89775791 4:0.90560693 5:0.89147869 6:0.89451592 7:0 8:0 9:0 10:0 11:0 12:0 13:1 14:0 
1 0:0.91164727 1:0.87502986 2:0.71405658 3:0.77459646 4:0.89775791 5:0.90560693 6:0.89147869 7:0 8:0 9:0 10:0 11:0 12:1 13:0 14:0 
1 0:0.94478381 1:0.91164727 2:0.87502986 3:0.71405658 4:0.77459646 5:0.89775791 6:0.90560693 7:0 8:0 9:0 10:0 11:1 12:0 13:0 14:0 
1 0:0.96140327 1:0.94478381 2:0.91164727 3:0.87502986 4:0.71405658 5:0.77459646 6:0.89775791 7:0 8:0 9:0 10:1 11:0 12:0 13:0 14:0 
-1 0:0.97413234 1:0.96140327 2:0.94478381 3:0.91164727 4:0.87502986 5:0.71405658 6:0.77459646 7:0 8:1 9:1 10:0 11:0 12:0 13:0 14:0 
1 0:0.81902877 1:0.97413234 2:0.96140327 3:0.94478381 4:0.91164727 5:0.87502986 6:0.71405658 7:0 8:1 9:0 10:0 11:0 12:0 13:0 14:0 
1 0:0.82476197 1:0.81902877 2:0.97413234 3:0.96140327 4:0.94478381 5:0.91164727 6:0.87502986 7:0 8:0 9:0 10:0 11:0 12:0 13:0 14:1 
1 0:0.8128178 1:0.83165546 2:0.94884483 3:0.95710337 4:0.97611166 5:0.97891001 6:0.97669181 7:0 8:0 9:0 10:0 11:0 12:0 13:0 14:1 
1 0:0.9558407 1:0.8128178 2:0.83165546 3:0.94884483 4:0.95710337 5:0.97611166 6:0.97891001 7:0 8:0 9:0 10:0 11:0 12:0 13:1 14:0 
1 0:0.9799338 1:0.9558407 2:0.8128178 3:0.83165546 4:0.94884483 5:0.95710337 6:0.97611166 7:0 8:0 9:0 10:0 11:0 12:1 13:0 14:0 
1 0:0.99238986 1:1 2:0.9799338 3:0.9558407 4:0.8128178 5:0.83165546 6:0.94884483 7:0 8:0 9:0 10:1 11:0 12:0 13:0 14:0 
-1 0:0.9979183 1:0.99238986 2:1 3:0.9799338 4:0.9558407 5:0.8128178 6:0.83165546 7:0 8:1 9:1 10:0 11:0 12:0 13:0 14:0 
-0.05777989885756476 0:0.94201959 1:0.94471556 2:0.82346517 3:0.86615705 4:0.9979183 5:0.99238986 6:1 7:0 8:0 9:0 10:0 11:0 12:1 13:0 14:0 
-1 0:0.92290892 1:0.93338566 2:0.94201959 3:0.94471556 4:0.82346517 5:0.86615705 6:0.9979183 7:0 8:0 9:0 10:1 11:0 12:0 13:0 14:0 
-1 0:0.90332048 1:0.92290892 2:0.93338566 3:0.94201959 4:0.94471556 5:0.82346517 6:0.86615705 7:0 8:1 9:1 10:0 11:0 12:0 13:0 14:0 
-1 0:0.78841757 1:0.90332048 2:0.92290892 3:0.93338566 4:0.94201959 5:0.94471556 6:0.82346517 7:0 8:1 9:0 10:0 11:0 12:0 13:0 14:0 
-1 0:0.90212606 1:0.88356141 2:0.75220967 3:0.78841757 4:0.90332048 5:0.92290892 6:0.93338566 7:0 8:0 9:0 10:0 11:0 12:1 13:0 14:0 
1 0:0.85823977 1:0.87100297 2:0.90212606 3:0.88356141 4:0.75220967 5:0.78841757 6:0.90332048 7:0 8:0 9:0 10:1 11:0 12:0 13:0 14:0 
1 0:0.88772481 1:0.85823977 2:0.87100297 3:0.90212606 4:0.88356141 5:0.75220967 6:0.78841757 7:0 8:1 9:1 10:0 11:0 12:0 13:0 14:0 
-1 0:0.8212811 1:0.88772481 2:0.85823977 3:0.87100297 4:0.90212606 5:0.88356141 6:0.75220967 7:0 8:1 9:0 10:0 11:0 12:0 13:0 14:0 
1 0:0.70777736 1:0.8212811 2:0.88772481 3:0.85823977 4:0.87100297 5:0.90212606 6:0.88356141 7:0 8:0 9:0 10:0 11:0 12:0 13:0 14:1 
-1 0:0.84677337 1:0.70777736 2:0.8212811 3:0.88772481 4:0.85823977 5:0.87100297 6:0.90212606 7:0 8:0 9:0 10:0 11:0 12:0 13:1 14:0 
1 0:0.82660478 1:0.84677337 2:0.70777736 3:0.8212811 4:0.88772481 5:0.85823977 6:0.87100297 7:0 8:0 9:0 10:0 11:0 12:1 13:0 14:0 
1 0:0.86827287 1:0.82660478 2:0.84677337 3:0.70777736 4:0.8212811 5:0.88772481 6:0.85823977 7:0 8:0 9:0 10:0 11:1 12:0 13:0 14:0 
-1 0:0.89663174 1:0.86827287 2:0.82660478 3:0.84677337 4:0.70777736 5:0.8212811 6:0.88772481 7:0 8:0 9:0 10:1 11:0 12:0 13:0 14:0 
-1 0:0.81019008 1:0.89663174 2:0.86827287 3:0.82660478 4:0.84677337 5:0.70777736 6:0.8212811 7:0 8:1 9:1 10:0 11:0 12:0 13:0 14:0 
-1 0:0.68696038 1:0.70852814 2:0.81019008 3:0.89663174 4:0.86827287 5:0.82660478 6:0.84677337 7:0 8:0 9:0 10:0 11:0 12:0 13:0 14:1 
-1 0:0.7785551 1:0.68696038 2:0.70852814 3:0.81019008 4:0.89663174 5:0.86827287 6:0.82660478 7:0 8:0 9:0 10:0 11:0 12:0 13:1 14:0 
-1 0:0.69341023 1:0.7785551 2:0.68696038 3:0.70852814 4:0.81019008 5:0.89663174 6:0.86827287 7:0 8:0 9:0 10:0 11:0 12:1 13:0 14:0 
-1 0:0.68365014 1:0.69341023 2:0.7785551 3:0.68696038 4:0.70852814 5:0.81019008 6:0.89663174 7:0 8:0 9:0 10:0 11:1 12:0 13:0 14:0 
-1 0:0.66358393 1:0.68365014 2:0.69341023 3:0.7785551 4:0.68696038 5:0.70852814 6:0.81019008 7:0 8:0 9:0 10:1 11:0 12:0 13:0 14:0 
-1 0:0.57519708 1:0.62775142 2:0.66358393 3:0.68365014 4:0.69341023 5:0.7785551 6:0.68696038 7:0 8:1 9:0 10:0 11:0 12:0 13:0 14:0 
1 0:0.53851142 1:0.57519708 2:0.62775142 3:0.66358393 4:0.68365014 5:0.69341023 6:0.7785551 7:0 8:0 9:0 10:0 11:0 12:0 13:0 14:1 
1 0:0.65515476 1:0.53851142 2:0.57519708 3:0.62775142 4:0.66358393 5:0.68365014 6:0.69341023 7:0 8:0 9:0 10:0 11:0 12:0 13:1 14:0 
1 0:0.75012797 1:0.75896666 2:0.65515476 3:0.53851142 4:0.57519708 5:0.62775142 6:0.66358393 7:0 8:0 9:0 10:0 11:1 12:0 13:0 14:0 
1 0:0.7600587 1:0.75012797 2:0.75896666 3:0.65515476 4:0.53851142 5:0.57519708 6:0.62775142 7:0 8:0 9:0 10:1 11:0 12:0 13:0 14:0 
-1 0:0.78183121 1:0.7600587 2:0.75012797 3:0.75896666 4:0.65515476 5:0.53851142 6:0.57519708 7:0 8:1 9:1 10:0 11:0 12:0 13:0 14:0 
